network unknown {
}
variable age {
    type discrete [ 5 ] { 17-28, 28-39, 39-50, 50-61, 61-70 };
    property weight = None ;
}
variable course {
    type discrete [ 6 ] { discom, salud, soced, tec, turismo, vetequi };
    property weight = None ;
}
variable grade {
    type discrete [ 4 ] { 0-4, 12-16, 16-20, 8-12 };
    property weight = None ;
}
variable mocup {
    type discrete [ 9 ] { admi, armed, farm, health, industry, other, school, scientific, technicians };
    property weight = None ;
}
variable mquali {
    type discrete [ 5 ] { basic, higher, secundary, technical, unknown };
    property weight = None ;
}
variable target {
    type discrete [ 2 ] { Dropout, Graduate };
    property weight = None ;
}
variable tuition {
    type discrete [ 2 ] { 0, 1 };
    property weight = None ;
}
variable unrate {
    type discrete [ 10 ] { 7.6, 8.9, 9.4, 10.8, 11.1, 12.4, 12.7, 13.9, 15.5, 16.2 };
    property weight = None ;
}
probability ( age ) {
    table 0.796831955922865, 0.13705234159779614, 0.05130853994490358, 0.014118457300275482, 0.0006887052341597796 ;
}
probability ( course | age, mocup ) {
    ( 17-28, admi ) 0.3609022556390977, 0.24060150375939848, 0.12969924812030076, 0.07142857142857142, 0.043233082706766915, 0.15413533834586465;
    ( 17-28, armed ) 1.0, 0.0, 0.0, 0.0, 0.0, 0.0;
    ( 17-28, farm ) 0.2222222222222222, 0.05555555555555555, 0.25, 0.16666666666666666, 0.1111111111111111, 0.19444444444444445;
    ( 17-28, health ) 1.0, 0.0, 0.0, 0.0, 0.0, 0.0;
    ( 17-28, industry ) 0.3762993762993763, 0.23596673596673598, 0.17671517671517672, 0.057172557172557176, 0.062370062370062374, 0.09147609147609148;
    ( 17-28, other ) 0.2647058823529412, 0.14705882352941177, 0.029411764705882353, 0.11764705882352941, 0.0, 0.4411764705882353;
    ( 17-28, school ) 0.5068493150684932, 0.0136986301369863, 0.3150684931506849, 0.0547945205479452, 0.0410958904109589, 0.0684931506849315;
    ( 17-28, scientific ) 0.37037037037037035, 0.19135802469135801, 0.07407407407407407, 0.08024691358024691, 0.037037037037037035, 0.24691358024691357;
    ( 17-28, technicians ) 0.4015594541910331, 0.24951267056530213, 0.16374269005847952, 0.04873294346978557, 0.07407407407407407, 0.06237816764132553;
    ( 28-39, admi ) 0.16666666666666666, 0.1, 0.13333333333333333, 0.2833333333333333, 0.08333333333333333, 0.23333333333333334;
    ( 28-39, armed ) 0.16666666666666666, 0.16666666666666666, 0.16666666666666666, 0.16666666666666666, 0.16666666666666666, 0.16666666666666666;
    ( 28-39, farm ) 0.625, 0.125, 0.0, 0.0, 0.0, 0.25;
    ( 28-39, health ) 0.16666666666666666, 0.16666666666666666, 0.16666666666666666, 0.16666666666666666, 0.16666666666666666, 0.16666666666666666;
    ( 28-39, industry ) 0.4175257731958763, 0.16494845360824742, 0.21649484536082475, 0.13917525773195877, 0.020618556701030927, 0.041237113402061855;
    ( 28-39, other ) 0.23076923076923078, 0.038461538461538464, 0.3076923076923077, 0.11538461538461539, 0.0, 0.3076923076923077;
    ( 28-39, school ) 0.2972972972972973, 0.05405405405405406, 0.4594594594594595, 0.08108108108108109, 0.02702702702702703, 0.08108108108108109;
    ( 28-39, scientific ) 0.3333333333333333, 0.19047619047619047, 0.09523809523809523, 0.2857142857142857, 0.047619047619047616, 0.047619047619047616;
    ( 28-39, technicians ) 0.36538461538461536, 0.1346153846153846, 0.25, 0.11538461538461539, 0.038461538461538464, 0.09615384615384616;
    ( 39-50, admi ) 0.4, 0.06666666666666667, 0.3333333333333333, 0.13333333333333333, 0.0, 0.06666666666666667;
    ( 39-50, armed ) 0.16666666666666666, 0.16666666666666666, 0.16666666666666666, 0.16666666666666666, 0.16666666666666666, 0.16666666666666666;
    ( 39-50, farm ) 0.5454545454545454, 0.09090909090909091, 0.2727272727272727, 0.0, 0.0, 0.09090909090909091;
    ( 39-50, health ) 0.16666666666666666, 0.16666666666666666, 0.16666666666666666, 0.16666666666666666, 0.16666666666666666, 0.16666666666666666;
    ( 39-50, industry ) 0.39285714285714285, 0.023809523809523808, 0.3333333333333333, 0.14285714285714285, 0.07142857142857142, 0.03571428571428571;
    ( 39-50, other ) 0.42857142857142855, 0.0, 0.2857142857142857, 0.14285714285714285, 0.14285714285714285, 0.0;
    ( 39-50, school ) 0.14285714285714285, 0.0, 0.6428571428571429, 0.14285714285714285, 0.07142857142857142, 0.0;
    ( 39-50, scientific ) 0.2, 0.4, 0.2, 0.0, 0.0, 0.2;
    ( 39-50, technicians ) 0.38461538461538464, 0.23076923076923078, 0.23076923076923078, 0.07692307692307693, 0.07692307692307693, 0.0;
    ( 50-61, admi ) 0.75, 0.25, 0.0, 0.0, 0.0, 0.0;
    ( 50-61, armed ) 0.0, 0.0, 0.0, 0.0, 0.0, 1.0;
    ( 50-61, farm ) 0.5, 0.0, 0.0, 0.5, 0.0, 0.0;
    ( 50-61, health ) 0.16666666666666666, 0.16666666666666666, 0.16666666666666666, 0.16666666666666666, 0.16666666666666666, 0.16666666666666666;
    ( 50-61, industry ) 0.4, 0.08, 0.28, 0.16, 0.08, 0.0;
    ( 50-61, other ) 0.5, 0.0, 0.5, 0.0, 0.0, 0.0;
    ( 50-61, school ) 0.25, 0.0, 0.75, 0.0, 0.0, 0.0;
    ( 50-61, scientific ) 0.16666666666666666, 0.16666666666666666, 0.16666666666666666, 0.16666666666666666, 0.16666666666666666, 0.16666666666666666;
    ( 50-61, technicians ) 1.0, 0.0, 0.0, 0.0, 0.0, 0.0;
    ( 61-70, admi ) 0.16666666666666666, 0.16666666666666666, 0.16666666666666666, 0.16666666666666666, 0.16666666666666666, 0.16666666666666666;
    ( 61-70, armed ) 0.16666666666666666, 0.16666666666666666, 0.16666666666666666, 0.16666666666666666, 0.16666666666666666, 0.16666666666666666;
    ( 61-70, farm ) 0.16666666666666666, 0.16666666666666666, 0.16666666666666666, 0.16666666666666666, 0.16666666666666666, 0.16666666666666666;
    ( 61-70, health ) 0.16666666666666666, 0.16666666666666666, 0.16666666666666666, 0.16666666666666666, 0.16666666666666666, 0.16666666666666666;
    ( 61-70, industry ) 1.0, 0.0, 0.0, 0.0, 0.0, 0.0;
    ( 61-70, other ) 0.16666666666666666, 0.16666666666666666, 0.16666666666666666, 0.16666666666666666, 0.16666666666666666, 0.16666666666666666;
    ( 61-70, school ) 0.16666666666666666, 0.16666666666666666, 0.16666666666666666, 0.16666666666666666, 0.16666666666666666, 0.16666666666666666;
    ( 61-70, scientific ) 0.0, 0.0, 0.0, 0.0, 1.0, 0.0;
    ( 61-70, technicians ) 0.16666666666666666, 0.16666666666666666, 0.16666666666666666, 0.16666666666666666, 0.16666666666666666, 0.16666666666666666;

}
probability ( grade | course, tuition ) {
    ( discom, 0 ) 0.5597826086956522, 0.21195652173913043, 0.0, 0.22826086956521738;
    ( discom, 1 ) 0.25386313465783666, 0.5309050772626932, 0.009933774834437087, 0.2052980132450331;
    ( salud, 0 ) 0.4482758620689655, 0.1724137931034483, 0.0, 0.3793103448275862;
    ( salud, 1 ) 0.08064516129032258, 0.8476702508960573, 0.010752688172043012, 0.06093189964157706;
    ( soced, 0 ) 0.47619047619047616, 0.2857142857142857, 0.0, 0.23809523809523808;
    ( soced, 1 ) 0.11790393013100436, 0.5567685589519651, 0.008733624454148471, 0.3165938864628821;
    ( tec, 0 ) 0.6296296296296297, 0.16666666666666666, 0.018518518518518517, 0.18518518518518517;
    ( tec, 1 ) 0.26136363636363635, 0.5284090909090909, 0.022727272727272728, 0.1875;
    ( turismo, 0 ) 0.6296296296296297, 0.1111111111111111, 0.0, 0.25925925925925924;
    ( turismo, 1 ) 0.12878787878787878, 0.5454545454545454, 0.007575757575757576, 0.3181818181818182;
    ( vetequi, 0 ) 0.41304347826086957, 0.32608695652173914, 0.0, 0.2608695652173913;
    ( vetequi, 1 ) 0.17712177121771217, 0.6789667896678967, 0.01845018450184502, 0.12546125461254612;

}
probability ( mocup | mquali ) {
    ( basic ) 0.11466505733252867, 0.0006035003017501509, 0.02715751357875679, 0.0006035003017501509, 0.6234158117079058, 0.024140012070006035, 0.016898008449004225, 0.0012070006035003018, 0.19130959565479783;
    ( higher ) 0.22133333333333333, 0.0, 0.008, 0.0, 0.04, 0.0, 0.016, 0.45866666666666667, 0.256;
    ( secundary ) 0.4435590969455511, 0.0013280212483399733, 0.01195219123505976, 0.0, 0.2815405046480744, 0.01859229747675963, 0.009296148738379814, 0.0199203187250996, 0.21381142098273573;
    ( technical ) 0.2857142857142857, 0.0, 0.0, 0.0, 0.14285714285714285, 0.0, 0.14285714285714285, 0.0, 0.42857142857142855;
    ( unknown ) 0.017857142857142856, 0.0, 0.0, 0.0, 0.044642857142857144, 0.15178571428571427, 0.7678571428571429, 0.0, 0.017857142857142856;

}
probability ( mquali ) {
    table 0.5705922865013774, 0.12913223140495866, 0.259297520661157, 0.0024104683195592287, 0.03856749311294766 ;
}
probability ( target | course, grade, tuition ) {
    ( discom, 0-4, 0 ) 0.9805825242718447, 0.019417475728155338;
    ( discom, 0-4, 1 ) 0.7304347826086957, 0.26956521739130435;
    ( discom, 12-16, 0 ) 0.717948717948718, 0.28205128205128205;
    ( discom, 12-16, 1 ) 0.158004158004158, 0.841995841995842;
    ( discom, 16-20, 0 ) 0.5, 0.5;
    ( discom, 16-20, 1 ) 0.1111111111111111, 0.8888888888888888;
    ( discom, 8-12, 0 ) 0.9523809523809523, 0.047619047619047616;
    ( discom, 8-12, 1 ) 0.3870967741935484, 0.6129032258064516;
    ( salud, 0-4, 0 ) 1.0, 0.0;
    ( salud, 0-4, 1 ) 1.0, 0.0;
    ( salud, 12-16, 0 ) 1.0, 0.0;
    ( salud, 12-16, 1 ) 0.05919661733615222, 0.9408033826638478;
    ( salud, 16-20, 0 ) 0.5, 0.5;
    ( salud, 16-20, 1 ) 0.0, 1.0;
    ( salud, 8-12, 0 ) 1.0, 0.0;
    ( salud, 8-12, 1 ) 0.3235294117647059, 0.6764705882352942;
    ( soced, 0-4, 0 ) 1.0, 0.0;
    ( soced, 0-4, 1 ) 1.0, 0.0;
    ( soced, 12-16, 0 ) 0.7222222222222222, 0.2777777777777778;
    ( soced, 12-16, 1 ) 0.10196078431372549, 0.8980392156862745;
    ( soced, 16-20, 0 ) 0.5, 0.5;
    ( soced, 16-20, 1 ) 0.0, 1.0;
    ( soced, 8-12, 0 ) 0.8666666666666667, 0.13333333333333333;
    ( soced, 8-12, 1 ) 0.30344827586206896, 0.696551724137931;
    ( tec, 0-4, 0 ) 1.0, 0.0;
    ( tec, 0-4, 1 ) 1.0, 0.0;
    ( tec, 12-16, 0 ) 1.0, 0.0;
    ( tec, 12-16, 1 ) 0.3225806451612903, 0.6774193548387096;
    ( tec, 16-20, 0 ) 1.0, 0.0;
    ( tec, 16-20, 1 ) 0.25, 0.75;
    ( tec, 8-12, 0 ) 1.0, 0.0;
    ( tec, 8-12, 1 ) 0.6060606060606061, 0.3939393939393939;
    ( turismo, 0-4, 0 ) 1.0, 0.0;
    ( turismo, 0-4, 1 ) 1.0, 0.0;
    ( turismo, 12-16, 0 ) 0.6666666666666666, 0.3333333333333333;
    ( turismo, 12-16, 1 ) 0.125, 0.875;
    ( turismo, 16-20, 0 ) 0.5, 0.5;
    ( turismo, 16-20, 1 ) 0.0, 1.0;
    ( turismo, 8-12, 0 ) 1.0, 0.0;
    ( turismo, 8-12, 1 ) 0.47619047619047616, 0.5238095238095238;
    ( vetequi, 0-4, 0 ) 1.0, 0.0;
    ( vetequi, 0-4, 1 ) 1.0, 0.0;
    ( vetequi, 12-16, 0 ) 0.9333333333333333, 0.06666666666666667;
    ( vetequi, 12-16, 1 ) 0.1793478260869565, 0.8206521739130435;
    ( vetequi, 16-20, 0 ) 0.5, 0.5;
    ( vetequi, 16-20, 1 ) 0.0, 1.0;
    ( vetequi, 8-12, 0 ) 1.0, 0.0;
    ( vetequi, 8-12, 1 ) 0.47058823529411764, 0.5294117647058824;

}
probability ( tuition | age, course ) {
    ( 17-28, discom ) 0.14383561643835616, 0.8561643835616438;
    ( 17-28, salud ) 0.028735632183908046, 0.9712643678160919;
    ( 17-28, soced ) 0.09510869565217392, 0.904891304347826;
    ( 17-28, tec ) 0.1724137931034483, 0.8275862068965517;
    ( 17-28, turismo ) 0.15671641791044777, 0.8432835820895522;
    ( 17-28, vetequi ) 0.10780669144981413, 0.8921933085501859;
    ( 28-39, discom ) 0.2517985611510791, 0.7482014388489209;
    ( 28-39, salud ) 0.1509433962264151, 0.8490566037735849;
    ( 28-39, soced ) 0.23333333333333334, 0.7666666666666667;
    ( 28-39, tec ) 0.3387096774193548, 0.6612903225806451;
    ( 28-39, turismo ) 0.38461538461538464, 0.6153846153846154;
    ( 28-39, vetequi ) 0.3902439024390244, 0.6097560975609756;
    ( 39-50, discom ) 0.30357142857142855, 0.6964285714285714;
    ( 39-50, salud ) 0.4444444444444444, 0.5555555555555556;
    ( 39-50, soced ) 0.058823529411764705, 0.9411764705882353;
    ( 39-50, tec ) 0.4444444444444444, 0.5555555555555556;
    ( 39-50, turismo ) 0.1111111111111111, 0.8888888888888888;
    ( 39-50, vetequi ) 0.16666666666666666, 0.8333333333333334;
    ( 50-61, discom ) 0.2777777777777778, 0.7222222222222222;
    ( 50-61, salud ) 0.6666666666666666, 0.3333333333333333;
    ( 50-61, soced ) 0.3333333333333333, 0.6666666666666666;
    ( 50-61, tec ) 0.0, 1.0;
    ( 50-61, turismo ) 0.0, 1.0;
    ( 50-61, vetequi ) 0.0, 1.0;
    ( 61-70, discom ) 1.0, 0.0;
    ( 61-70, salud ) 0.5, 0.5;
    ( 61-70, soced ) 0.5, 0.5;
    ( 61-70, tec ) 0.5, 0.5;
    ( 61-70, turismo ) 0.0, 1.0;
    ( 61-70, vetequi ) 0.5, 0.5;

}
probability ( unrate | course, target ) {
    ( discom, Dropout ) 0.1522633744855967, 0.06995884773662552, 0.16049382716049382, 0.14609053497942387, 0.07407407407407407, 0.06995884773662552, 0.1111111111111111, 0.06378600823045268, 0.09465020576131687, 0.05761316872427984;
    ( discom, Graduate ) 0.1076158940397351, 0.12417218543046357, 0.11920529801324503, 0.08609271523178808, 0.13245033112582782, 0.11423841059602649, 0.08443708609271523, 0.07947019867549669, 0.059602649006622516, 0.09271523178807947;
    ( salud, Dropout ) 0.061946902654867256, 0.017699115044247787, 0.05309734513274336, 0.04424778761061947, 0.1504424778761062, 0.11504424778761062, 0.1504424778761062, 0.168141592920354, 0.07964601769911504, 0.1592920353982301;
    ( salud, Graduate ) 0.1308016877637131, 0.008438818565400843, 0.11814345991561181, 0.12869198312236288, 0.09071729957805907, 0.09071729957805907, 0.1751054852320675, 0.0970464135021097, 0.09071729957805907, 0.06962025316455696;
    ( soced, Dropout ) 0.16111111111111112, 0.07222222222222222, 0.15, 0.17222222222222222, 0.05555555555555555, 0.05555555555555555, 0.1111111111111111, 0.06666666666666667, 0.044444444444444446, 0.1111111111111111;
    ( soced, Graduate ) 0.12316715542521994, 0.08211143695014662, 0.10850439882697947, 0.1378299120234604, 0.10850439882697947, 0.12609970674486803, 0.08504398826979472, 0.08211143695014662, 0.06158357771260997, 0.08504398826979472;
    ( tec, Dropout ) 0.10596026490066225, 0.09933774834437085, 0.052980132450331126, 0.052980132450331126, 0.09933774834437085, 0.09271523178807947, 0.033112582781456956, 0.11920529801324503, 0.2052980132450331, 0.1390728476821192;
    ( tec, Graduate ) 0.012658227848101266, 0.189873417721519, 0.0, 0.0, 0.0379746835443038, 0.17721518987341772, 0.0, 0.12658227848101267, 0.31645569620253167, 0.13924050632911392;
    ( turismo, Dropout ) 0.25, 0.06944444444444445, 0.09722222222222222, 0.2222222222222222, 0.09722222222222222, 0.027777777777777776, 0.06944444444444445, 0.041666666666666664, 0.05555555555555555, 0.06944444444444445;
    ( turismo, Graduate ) 0.034482758620689655, 0.16091954022988506, 0.13793103448275862, 0.05747126436781609, 0.11494252873563218, 0.16091954022988506, 0.06896551724137931, 0.14942528735632185, 0.04597701149425287, 0.06896551724137931;
    ( vetequi, Dropout ) 0.14084507042253522, 0.08450704225352113, 0.13380281690140844, 0.09154929577464789, 0.07746478873239436, 0.11267605633802817, 0.07746478873239436, 0.09154929577464789, 0.09859154929577464, 0.09154929577464789;
    ( vetequi, Graduate ) 0.13142857142857142, 0.09714285714285714, 0.11428571428571428, 0.1657142857142857, 0.06285714285714286, 0.09714285714285714, 0.08571428571428572, 0.10857142857142857, 0.08571428571428572, 0.05142857142857143;

}
