network unknown {
}
variable COLE_BILINGUE {
    type discrete [ 2 ] { N, S };
}
variable COLE_JORNADA {
    type discrete [ 6 ] { COMPLETA, MA헤NA, NOCHE, SABATINA, TARDE, UNICA };
}
variable COLE_NATURALEZA {
    type discrete [ 2 ] { NO OFICIAL, OFICIAL };
}
variable ESTU_GENERO {
    type discrete [ 2 ] { F, M };
}
variable FAMI_ESTRATOVIVIENDA {
    type discrete [ 7 ] { Estrato 1, Estrato 2, Estrato 3, Estrato 4, Estrato 5, Estrato 6, Sin Estrato };
}
variable FAMI_TIENECOMPUTADOR {
    type discrete [ 2 ] { No, Si };
}
variable FAMI_TIENEINTERNET {
    type discrete [ 2 ] { No, Si };
}
variable puntaje {
    type discrete [ 6 ] { [116-131), [131-186), [186-298), [298-353), [353-409), [409-471] };
}
probability ( COLE_BILINGUE ) {
    table 0.9631275408906117, 0.03687245910938829 ;
}
probability ( COLE_JORNADA ) {
    table 0.09775928902335256, 0.5084617566417698, 0.07374491821877659, 0.0025999810910466107, 0.2797106930131417, 0.03772336201191264 ;
}
probability ( COLE_NATURALEZA ) {
    table 0.27909615202798527, 0.7209038479720148 ;
}
probability ( ESTU_GENERO ) {
    table 0.5393778954334878, 0.46062210456651226 ;
}
probability ( FAMI_ESTRATOVIVIENDA ) {
    table 0.3240521887113548, 0.3333175758721755, 0.18814408622482745, 0.05847593835681195, 0.026897986196464024, 0.020799848728372886, 0.048312375909993384 ;
}
probability ( FAMI_TIENECOMPUTADOR ) {
    table 0.5704358513756264, 0.42956414862437364 ;
}
probability ( FAMI_TIENEINTERNET ) {
    table 0.3194667675144181, 0.680533232485582 ;
}
probability ( puntaje | COLE_BILINGUE, COLE_JORNADA, COLE_NATURALEZA, ESTU_GENERO, FAMI_ESTRATOVIVIENDA, FAMI_TIENECOMPUTADOR, FAMI_TIENEINTERNET ) {
    ( N, COMPLETA, NO OFICIAL, F, Estrato 1, No, No ) 0.0, 0.11764705882352941, 0.5294117647058824, 0.29411764705882354, 0.058823529411764705, 0.0;
    ( N, COMPLETA, NO OFICIAL, F, Estrato 1, No, Si ) 0.0, 0.0, 0.5882352941176471, 0.29411764705882354, 0.11764705882352941, 0.0;
    ( N, COMPLETA, NO OFICIAL, F, Estrato 1, Si, No ) 0.0, 0.0, 1.0, 0.0, 0.0, 0.0;
    ( N, COMPLETA, NO OFICIAL, F, Estrato 1, Si, Si ) 0.0, 0.0, 0.45454545454545453, 0.5, 0.045454545454545456, 0.0;
    ( N, COMPLETA, NO OFICIAL, F, Estrato 2, No, No ) 0.0, 0.0, 0.2857142857142857, 0.2857142857142857, 0.42857142857142855, 0.0;
    ( N, COMPLETA, NO OFICIAL, F, Estrato 2, No, Si ) 0.0, 0.0, 0.43333333333333335, 0.4, 0.16666666666666666, 0.0;
    ( N, COMPLETA, NO OFICIAL, F, Estrato 2, Si, No ) 0.16666666666666666, 0.16666666666666666, 0.16666666666666666, 0.16666666666666666, 0.16666666666666666, 0.16666666666666666;
    ( N, COMPLETA, NO OFICIAL, F, Estrato 2, Si, Si ) 0.0, 0.010309278350515464, 0.36082474226804123, 0.4845360824742268, 0.13402061855670103, 0.010309278350515464;
    ( N, COMPLETA, NO OFICIAL, F, Estrato 3, No, No ) 0.16666666666666666, 0.16666666666666666, 0.16666666666666666, 0.16666666666666666, 0.16666666666666666, 0.16666666666666666;
    ( N, COMPLETA, NO OFICIAL, F, Estrato 3, No, Si ) 0.0, 0.0, 0.6428571428571429, 0.2857142857142857, 0.07142857142857142, 0.0;
    ( N, COMPLETA, NO OFICIAL, F, Estrato 3, Si, No ) 0.0, 0.0, 0.0, 1.0, 0.0, 0.0;
    ( N, COMPLETA, NO OFICIAL, F, Estrato 3, Si, Si ) 0.0, 0.007518796992481203, 0.3308270676691729, 0.5112781954887218, 0.15037593984962405, 0.0;
    ( N, COMPLETA, NO OFICIAL, F, Estrato 4, No, No ) 0.0, 1.0, 0.0, 0.0, 0.0, 0.0;
    ( N, COMPLETA, NO OFICIAL, F, Estrato 4, No, Si ) 0.0, 0.0, 1.0, 0.0, 0.0, 0.0;
    ( N, COMPLETA, NO OFICIAL, F, Estrato 4, Si, No ) 0.0, 0.0, 1.0, 0.0, 0.0, 0.0;
    ( N, COMPLETA, NO OFICIAL, F, Estrato 4, Si, Si ) 0.0, 0.0, 0.425531914893617, 0.5106382978723404, 0.06382978723404255, 0.0;
    ( N, COMPLETA, NO OFICIAL, F, Estrato 5, No, No ) 0.16666666666666666, 0.16666666666666666, 0.16666666666666666, 0.16666666666666666, 0.16666666666666666, 0.16666666666666666;
    ( N, COMPLETA, NO OFICIAL, F, Estrato 5, No, Si ) 0.0, 0.0, 0.0, 0.0, 1.0, 0.0;
    ( N, COMPLETA, NO OFICIAL, F, Estrato 5, Si, No ) 0.0, 0.0, 1.0, 0.0, 0.0, 0.0;
    ( N, COMPLETA, NO OFICIAL, F, Estrato 5, Si, Si ) 0.0, 0.0, 0.20833333333333334, 0.5833333333333334, 0.16666666666666666, 0.041666666666666664;
    ( N, COMPLETA, NO OFICIAL, F, Estrato 6, No, No ) 0.16666666666666666, 0.16666666666666666, 0.16666666666666666, 0.16666666666666666, 0.16666666666666666, 0.16666666666666666;
    ( N, COMPLETA, NO OFICIAL, F, Estrato 6, No, Si ) 0.16666666666666666, 0.16666666666666666, 0.16666666666666666, 0.16666666666666666, 0.16666666666666666, 0.16666666666666666;
    ( N, COMPLETA, NO OFICIAL, F, Estrato 6, Si, No ) 0.16666666666666666, 0.16666666666666666, 0.16666666666666666, 0.16666666666666666, 0.16666666666666666, 0.16666666666666666;
    ( N, COMPLETA, NO OFICIAL, F, Estrato 6, Si, Si ) 0.0, 0.0, 0.2727272727272727, 0.6363636363636364, 0.09090909090909091, 0.0;
    ( N, COMPLETA, NO OFICIAL, F, Sin Estrato, No, No ) 0.0, 0.3333333333333333, 0.3333333333333333, 0.3333333333333333, 0.0, 0.0;
    ( N, COMPLETA, NO OFICIAL, F, Sin Estrato, No, Si ) 0.0, 1.0, 0.0, 0.0, 0.0, 0.0;
    ( N, COMPLETA, NO OFICIAL, F, Sin Estrato, Si, No ) 0.16666666666666666, 0.16666666666666666, 0.16666666666666666, 0.16666666666666666, 0.16666666666666666, 0.16666666666666666;
    ( N, COMPLETA, NO OFICIAL, F, Sin Estrato, Si, Si ) 0.0, 0.0, 0.5, 0.5, 0.0, 0.0;
    ( N, COMPLETA, NO OFICIAL, M, Estrato 1, No, No ) 0.0, 0.16666666666666666, 0.3333333333333333, 0.5, 0.0, 0.0;
    ( N, COMPLETA, NO OFICIAL, M, Estrato 1, No, Si ) 0.0, 0.23076923076923078, 0.46153846153846156, 0.23076923076923078, 0.07692307692307693, 0.0;
    ( N, COMPLETA, NO OFICIAL, M, Estrato 1, Si, No ) 0.16666666666666666, 0.16666666666666666, 0.16666666666666666, 0.16666666666666666, 0.16666666666666666, 0.16666666666666666;
    ( N, COMPLETA, NO OFICIAL, M, Estrato 1, Si, Si ) 0.0, 0.14285714285714285, 0.42857142857142855, 0.07142857142857142, 0.2857142857142857, 0.07142857142857142;
    ( N, COMPLETA, NO OFICIAL, M, Estrato 2, No, No ) 0.0, 0.0, 0.25, 0.5, 0.25, 0.0;
    ( N, COMPLETA, NO OFICIAL, M, Estrato 2, No, Si ) 0.0, 0.05555555555555555, 0.2222222222222222, 0.5555555555555556, 0.16666666666666666, 0.0;
    ( N, COMPLETA, NO OFICIAL, M, Estrato 2, Si, No ) 0.0, 0.0, 1.0, 0.0, 0.0, 0.0;
    ( N, COMPLETA, NO OFICIAL, M, Estrato 2, Si, Si ) 0.0, 0.03333333333333333, 0.3, 0.43333333333333335, 0.21666666666666667, 0.016666666666666666;
    ( N, COMPLETA, NO OFICIAL, M, Estrato 3, No, No ) 0.0, 1.0, 0.0, 0.0, 0.0, 0.0;
    ( N, COMPLETA, NO OFICIAL, M, Estrato 3, No, Si ) 0.0, 0.0, 0.5384615384615384, 0.3076923076923077, 0.07692307692307693, 0.07692307692307693;
    ( N, COMPLETA, NO OFICIAL, M, Estrato 3, Si, No ) 0.16666666666666666, 0.16666666666666666, 0.16666666666666666, 0.16666666666666666, 0.16666666666666666, 0.16666666666666666;
    ( N, COMPLETA, NO OFICIAL, M, Estrato 3, Si, Si ) 0.0, 0.022857142857142857, 0.2857142857142857, 0.44571428571428573, 0.24571428571428572, 0.0;
    ( N, COMPLETA, NO OFICIAL, M, Estrato 4, No, No ) 0.16666666666666666, 0.16666666666666666, 0.16666666666666666, 0.16666666666666666, 0.16666666666666666, 0.16666666666666666;
    ( N, COMPLETA, NO OFICIAL, M, Estrato 4, No, Si ) 0.0, 0.0, 0.6666666666666666, 0.3333333333333333, 0.0, 0.0;
    ( N, COMPLETA, NO OFICIAL, M, Estrato 4, Si, No ) 0.0, 0.0, 0.0, 1.0, 0.0, 0.0;
    ( N, COMPLETA, NO OFICIAL, M, Estrato 4, Si, Si ) 0.0, 0.0, 0.4, 0.36363636363636365, 0.23636363636363636, 0.0;
    ( N, COMPLETA, NO OFICIAL, M, Estrato 5, No, No ) 0.16666666666666666, 0.16666666666666666, 0.16666666666666666, 0.16666666666666666, 0.16666666666666666, 0.16666666666666666;
    ( N, COMPLETA, NO OFICIAL, M, Estrato 5, No, Si ) 0.0, 0.0, 0.0, 1.0, 0.0, 0.0;
    ( N, COMPLETA, NO OFICIAL, M, Estrato 5, Si, No ) 0.16666666666666666, 0.16666666666666666, 0.16666666666666666, 0.16666666666666666, 0.16666666666666666, 0.16666666666666666;
    ( N, COMPLETA, NO OFICIAL, M, Estrato 5, Si, Si ) 0.0, 0.0, 0.26, 0.4, 0.34, 0.0;
    ( N, COMPLETA, NO OFICIAL, M, Estrato 6, No, No ) 0.16666666666666666, 0.16666666666666666, 0.16666666666666666, 0.16666666666666666, 0.16666666666666666, 0.16666666666666666;
    ( N, COMPLETA, NO OFICIAL, M, Estrato 6, No, Si ) 0.16666666666666666, 0.16666666666666666, 0.16666666666666666, 0.16666666666666666, 0.16666666666666666, 0.16666666666666666;
    ( N, COMPLETA, NO OFICIAL, M, Estrato 6, Si, No ) 0.16666666666666666, 0.16666666666666666, 0.16666666666666666, 0.16666666666666666, 0.16666666666666666, 0.16666666666666666;
    ( N, COMPLETA, NO OFICIAL, M, Estrato 6, Si, Si ) 0.0, 0.0, 0.21951219512195122, 0.3170731707317073, 0.34146341463414637, 0.12195121951219512;
    ( N, COMPLETA, NO OFICIAL, M, Sin Estrato, No, No ) 0.0, 0.0, 0.0, 0.0, 1.0, 0.0;
    ( N, COMPLETA, NO OFICIAL, M, Sin Estrato, No, Si ) 0.0, 1.0, 0.0, 0.0, 0.0, 0.0;
    ( N, COMPLETA, NO OFICIAL, M, Sin Estrato, Si, No ) 0.0, 0.0, 0.0, 1.0, 0.0, 0.0;
    ( N, COMPLETA, NO OFICIAL, M, Sin Estrato, Si, Si ) 0.0, 0.0, 0.6666666666666666, 0.3333333333333333, 0.0, 0.0;
    ( N, COMPLETA, OFICIAL, F, Estrato 1, No, No ) 0.0, 0.0, 0.6666666666666666, 0.3333333333333333, 0.0, 0.0;
    ( N, COMPLETA, OFICIAL, F, Estrato 1, No, Si ) 0.0, 0.0, 1.0, 0.0, 0.0, 0.0;
    ( N, COMPLETA, OFICIAL, F, Estrato 1, Si, No ) 0.0, 0.0, 0.0, 1.0, 0.0, 0.0;
    ( N, COMPLETA, OFICIAL, F, Estrato 1, Si, Si ) 0.0, 0.0, 0.5714285714285714, 0.42857142857142855, 0.0, 0.0;
    ( N, COMPLETA, OFICIAL, F, Estrato 2, No, No ) 0.0, 0.0, 0.3333333333333333, 0.6666666666666666, 0.0, 0.0;
    ( N, COMPLETA, OFICIAL, F, Estrato 2, No, Si ) 0.0, 0.0, 0.9, 0.1, 0.0, 0.0;
    ( N, COMPLETA, OFICIAL, F, Estrato 2, Si, No ) 0.0, 0.0, 1.0, 0.0, 0.0, 0.0;
    ( N, COMPLETA, OFICIAL, F, Estrato 2, Si, Si ) 0.0, 0.0, 0.8888888888888888, 0.1111111111111111, 0.0, 0.0;
    ( N, COMPLETA, OFICIAL, F, Estrato 3, No, No ) 0.16666666666666666, 0.16666666666666666, 0.16666666666666666, 0.16666666666666666, 0.16666666666666666, 0.16666666666666666;
    ( N, COMPLETA, OFICIAL, F, Estrato 3, No, Si ) 0.0, 0.0, 1.0, 0.0, 0.0, 0.0;
    ( N, COMPLETA, OFICIAL, F, Estrato 3, Si, No ) 0.16666666666666666, 0.16666666666666666, 0.16666666666666666, 0.16666666666666666, 0.16666666666666666, 0.16666666666666666;
    ( N, COMPLETA, OFICIAL, F, Estrato 3, Si, Si ) 0.0, 0.0, 0.8, 0.2, 0.0, 0.0;
    ( N, COMPLETA, OFICIAL, F, Estrato 4, No, No ) 0.16666666666666666, 0.16666666666666666, 0.16666666666666666, 0.16666666666666666, 0.16666666666666666, 0.16666666666666666;
    ( N, COMPLETA, OFICIAL, F, Estrato 4, No, Si ) 0.16666666666666666, 0.16666666666666666, 0.16666666666666666, 0.16666666666666666, 0.16666666666666666, 0.16666666666666666;
    ( N, COMPLETA, OFICIAL, F, Estrato 4, Si, No ) 0.16666666666666666, 0.16666666666666666, 0.16666666666666666, 0.16666666666666666, 0.16666666666666666, 0.16666666666666666;
    ( N, COMPLETA, OFICIAL, F, Estrato 4, Si, Si ) 0.0, 0.0, 1.0, 0.0, 0.0, 0.0;
    ( N, COMPLETA, OFICIAL, F, Estrato 5, No, No ) 0.16666666666666666, 0.16666666666666666, 0.16666666666666666, 0.16666666666666666, 0.16666666666666666, 0.16666666666666666;
    ( N, COMPLETA, OFICIAL, F, Estrato 5, No, Si ) 0.16666666666666666, 0.16666666666666666, 0.16666666666666666, 0.16666666666666666, 0.16666666666666666, 0.16666666666666666;
    ( N, COMPLETA, OFICIAL, F, Estrato 5, Si, No ) 0.16666666666666666, 0.16666666666666666, 0.16666666666666666, 0.16666666666666666, 0.16666666666666666, 0.16666666666666666;
    ( N, COMPLETA, OFICIAL, F, Estrato 5, Si, Si ) 0.16666666666666666, 0.16666666666666666, 0.16666666666666666, 0.16666666666666666, 0.16666666666666666, 0.16666666666666666;
    ( N, COMPLETA, OFICIAL, F, Estrato 6, No, No ) 0.16666666666666666, 0.16666666666666666, 0.16666666666666666, 0.16666666666666666, 0.16666666666666666, 0.16666666666666666;
    ( N, COMPLETA, OFICIAL, F, Estrato 6, No, Si ) 0.16666666666666666, 0.16666666666666666, 0.16666666666666666, 0.16666666666666666, 0.16666666666666666, 0.16666666666666666;
    ( N, COMPLETA, OFICIAL, F, Estrato 6, Si, No ) 0.16666666666666666, 0.16666666666666666, 0.16666666666666666, 0.16666666666666666, 0.16666666666666666, 0.16666666666666666;
    ( N, COMPLETA, OFICIAL, F, Estrato 6, Si, Si ) 0.16666666666666666, 0.16666666666666666, 0.16666666666666666, 0.16666666666666666, 0.16666666666666666, 0.16666666666666666;
    ( N, COMPLETA, OFICIAL, F, Sin Estrato, No, No ) 0.16666666666666666, 0.16666666666666666, 0.16666666666666666, 0.16666666666666666, 0.16666666666666666, 0.16666666666666666;
    ( N, COMPLETA, OFICIAL, F, Sin Estrato, No, Si ) 0.0, 0.0, 1.0, 0.0, 0.0, 0.0;
    ( N, COMPLETA, OFICIAL, F, Sin Estrato, Si, No ) 0.16666666666666666, 0.16666666666666666, 0.16666666666666666, 0.16666666666666666, 0.16666666666666666, 0.16666666666666666;
    ( N, COMPLETA, OFICIAL, F, Sin Estrato, Si, Si ) 0.16666666666666666, 0.16666666666666666, 0.16666666666666666, 0.16666666666666666, 0.16666666666666666, 0.16666666666666666;
    ( N, COMPLETA, OFICIAL, M, Estrato 1, No, No ) 0.0, 0.0, 1.0, 0.0, 0.0, 0.0;
    ( N, COMPLETA, OFICIAL, M, Estrato 1, No, Si ) 0.0, 0.0, 1.0, 0.0, 0.0, 0.0;
    ( N, COMPLETA, OFICIAL, M, Estrato 1, Si, No ) 0.16666666666666666, 0.16666666666666666, 0.16666666666666666, 0.16666666666666666, 0.16666666666666666, 0.16666666666666666;
    ( N, COMPLETA, OFICIAL, M, Estrato 1, Si, Si ) 0.0, 0.0, 0.6, 0.4, 0.0, 0.0;
    ( N, COMPLETA, OFICIAL, M, Estrato 2, No, No ) 0.0, 0.0, 1.0, 0.0, 0.0, 0.0;
    ( N, COMPLETA, OFICIAL, M, Estrato 2, No, Si ) 0.0, 0.0, 1.0, 0.0, 0.0, 0.0;
    ( N, COMPLETA, OFICIAL, M, Estrato 2, Si, No ) 0.0, 0.0, 0.0, 0.0, 1.0, 0.0;
    ( N, COMPLETA, OFICIAL, M, Estrato 2, Si, Si ) 0.0, 0.0, 0.6, 0.4, 0.0, 0.0;
    ( N, COMPLETA, OFICIAL, M, Estrato 3, No, No ) 0.16666666666666666, 0.16666666666666666, 0.16666666666666666, 0.16666666666666666, 0.16666666666666666, 0.16666666666666666;
    ( N, COMPLETA, OFICIAL, M, Estrato 3, No, Si ) 0.0, 0.0, 1.0, 0.0, 0.0, 0.0;
    ( N, COMPLETA, OFICIAL, M, Estrato 3, Si, No ) 0.16666666666666666, 0.16666666666666666, 0.16666666666666666, 0.16666666666666666, 0.16666666666666666, 0.16666666666666666;
    ( N, COMPLETA, OFICIAL, M, Estrato 3, Si, Si ) 0.0, 0.0, 0.625, 0.375, 0.0, 0.0;
    ( N, COMPLETA, OFICIAL, M, Estrato 4, No, No ) 0.16666666666666666, 0.16666666666666666, 0.16666666666666666, 0.16666666666666666, 0.16666666666666666, 0.16666666666666666;
    ( N, COMPLETA, OFICIAL, M, Estrato 4, No, Si ) 0.16666666666666666, 0.16666666666666666, 0.16666666666666666, 0.16666666666666666, 0.16666666666666666, 0.16666666666666666;
    ( N, COMPLETA, OFICIAL, M, Estrato 4, Si, No ) 0.0, 0.0, 0.0, 1.0, 0.0, 0.0;
    ( N, COMPLETA, OFICIAL, M, Estrato 4, Si, Si ) 0.0, 0.5, 0.5, 0.0, 0.0, 0.0;
    ( N, COMPLETA, OFICIAL, M, Estrato 5, No, No ) 0.16666666666666666, 0.16666666666666666, 0.16666666666666666, 0.16666666666666666, 0.16666666666666666, 0.16666666666666666;
    ( N, COMPLETA, OFICIAL, M, Estrato 5, No, Si ) 0.16666666666666666, 0.16666666666666666, 0.16666666666666666, 0.16666666666666666, 0.16666666666666666, 0.16666666666666666;
    ( N, COMPLETA, OFICIAL, M, Estrato 5, Si, No ) 0.16666666666666666, 0.16666666666666666, 0.16666666666666666, 0.16666666666666666, 0.16666666666666666, 0.16666666666666666;
    ( N, COMPLETA, OFICIAL, M, Estrato 5, Si, Si ) 0.16666666666666666, 0.16666666666666666, 0.16666666666666666, 0.16666666666666666, 0.16666666666666666, 0.16666666666666666;
    ( N, COMPLETA, OFICIAL, M, Estrato 6, No, No ) 0.16666666666666666, 0.16666666666666666, 0.16666666666666666, 0.16666666666666666, 0.16666666666666666, 0.16666666666666666;
    ( N, COMPLETA, OFICIAL, M, Estrato 6, No, Si ) 0.16666666666666666, 0.16666666666666666, 0.16666666666666666, 0.16666666666666666, 0.16666666666666666, 0.16666666666666666;
    ( N, COMPLETA, OFICIAL, M, Estrato 6, Si, No ) 0.16666666666666666, 0.16666666666666666, 0.16666666666666666, 0.16666666666666666, 0.16666666666666666, 0.16666666666666666;
    ( N, COMPLETA, OFICIAL, M, Estrato 6, Si, Si ) 0.16666666666666666, 0.16666666666666666, 0.16666666666666666, 0.16666666666666666, 0.16666666666666666, 0.16666666666666666;
    ( N, COMPLETA, OFICIAL, M, Sin Estrato, No, No ) 0.16666666666666666, 0.16666666666666666, 0.16666666666666666, 0.16666666666666666, 0.16666666666666666, 0.16666666666666666;
    ( N, COMPLETA, OFICIAL, M, Sin Estrato, No, Si ) 0.16666666666666666, 0.16666666666666666, 0.16666666666666666, 0.16666666666666666, 0.16666666666666666, 0.16666666666666666;
    ( N, COMPLETA, OFICIAL, M, Sin Estrato, Si, No ) 0.16666666666666666, 0.16666666666666666, 0.16666666666666666, 0.16666666666666666, 0.16666666666666666, 0.16666666666666666;
    ( N, COMPLETA, OFICIAL, M, Sin Estrato, Si, Si ) 0.16666666666666666, 0.16666666666666666, 0.16666666666666666, 0.16666666666666666, 0.16666666666666666, 0.16666666666666666;
    ( N, MA헤NA, NO OFICIAL, F, Estrato 1, No, No ) 0.0, 0.10810810810810811, 0.5945945945945946, 0.24324324324324326, 0.05405405405405406, 0.0;
    ( N, MA헤NA, NO OFICIAL, F, Estrato 1, No, Si ) 0.0, 0.06097560975609756, 0.8170731707317073, 0.12195121951219512, 0.0, 0.0;
    ( N, MA헤NA, NO OFICIAL, F, Estrato 1, Si, No ) 0.0, 0.0, 0.75, 0.125, 0.125, 0.0;
    ( N, MA헤NA, NO OFICIAL, F, Estrato 1, Si, Si ) 0.0, 0.04195804195804196, 0.7202797202797203, 0.2097902097902098, 0.027972027972027972, 0.0;
    ( N, MA헤NA, NO OFICIAL, F, Estrato 2, No, No ) 0.0, 0.03225806451612903, 0.7741935483870968, 0.1935483870967742, 0.0, 0.0;
    ( N, MA헤NA, NO OFICIAL, F, Estrato 2, No, Si ) 0.0, 0.055944055944055944, 0.6783216783216783, 0.2517482517482518, 0.013986013986013986, 0.0;
    ( N, MA헤NA, NO OFICIAL, F, Estrato 2, Si, No ) 0.0, 0.4, 0.2, 0.4, 0.0, 0.0;
    ( N, MA헤NA, NO OFICIAL, F, Estrato 2, Si, Si ) 0.0, 0.015915119363395226, 0.6021220159151194, 0.32360742705570295, 0.058355437665782495, 0.0;
    ( N, MA헤NA, NO OFICIAL, F, Estrato 3, No, No ) 0.0, 0.14285714285714285, 0.7142857142857143, 0.14285714285714285, 0.0, 0.0;
    ( N, MA헤NA, NO OFICIAL, F, Estrato 3, No, Si ) 0.0, 0.05333333333333334, 0.8133333333333334, 0.13333333333333333, 0.0, 0.0;
    ( N, MA헤NA, NO OFICIAL, F, Estrato 3, Si, No ) 0.0, 0.14285714285714285, 0.8571428571428571, 0.0, 0.0, 0.0;
    ( N, MA헤NA, NO OFICIAL, F, Estrato 3, Si, Si ) 0.006134969325153374, 0.0705521472392638, 0.5858895705521472, 0.2822085889570552, 0.05521472392638037, 0.0;
    ( N, MA헤NA, NO OFICIAL, F, Estrato 4, No, No ) 0.0, 0.0, 1.0, 0.0, 0.0, 0.0;
    ( N, MA헤NA, NO OFICIAL, F, Estrato 4, No, Si ) 0.0, 0.0, 1.0, 0.0, 0.0, 0.0;
    ( N, MA헤NA, NO OFICIAL, F, Estrato 4, Si, No ) 0.16666666666666666, 0.16666666666666666, 0.16666666666666666, 0.16666666666666666, 0.16666666666666666, 0.16666666666666666;
    ( N, MA헤NA, NO OFICIAL, F, Estrato 4, Si, Si ) 0.0, 0.10526315789473684, 0.5578947368421052, 0.29473684210526313, 0.042105263157894736, 0.0;
    ( N, MA헤NA, NO OFICIAL, F, Estrato 5, No, No ) 0.16666666666666666, 0.16666666666666666, 0.16666666666666666, 0.16666666666666666, 0.16666666666666666, 0.16666666666666666;
    ( N, MA헤NA, NO OFICIAL, F, Estrato 5, No, Si ) 0.0, 0.0, 0.6666666666666666, 0.0, 0.3333333333333333, 0.0;
    ( N, MA헤NA, NO OFICIAL, F, Estrato 5, Si, No ) 0.0, 0.0, 1.0, 0.0, 0.0, 0.0;
    ( N, MA헤NA, NO OFICIAL, F, Estrato 5, Si, Si ) 0.0, 0.07142857142857142, 0.6428571428571429, 0.14285714285714285, 0.14285714285714285, 0.0;
    ( N, MA헤NA, NO OFICIAL, F, Estrato 6, No, No ) 0.0, 1.0, 0.0, 0.0, 0.0, 0.0;
    ( N, MA헤NA, NO OFICIAL, F, Estrato 6, No, Si ) 0.16666666666666666, 0.16666666666666666, 0.16666666666666666, 0.16666666666666666, 0.16666666666666666, 0.16666666666666666;
    ( N, MA헤NA, NO OFICIAL, F, Estrato 6, Si, No ) 0.16666666666666666, 0.16666666666666666, 0.16666666666666666, 0.16666666666666666, 0.16666666666666666, 0.16666666666666666;
    ( N, MA헤NA, NO OFICIAL, F, Estrato 6, Si, Si ) 0.0, 0.0, 1.0, 0.0, 0.0, 0.0;
    ( N, MA헤NA, NO OFICIAL, F, Sin Estrato, No, No ) 0.0, 0.4444444444444444, 0.4444444444444444, 0.1111111111111111, 0.0, 0.0;
    ( N, MA헤NA, NO OFICIAL, F, Sin Estrato, No, Si ) 0.0, 0.0, 1.0, 0.0, 0.0, 0.0;
    ( N, MA헤NA, NO OFICIAL, F, Sin Estrato, Si, No ) 0.16666666666666666, 0.16666666666666666, 0.16666666666666666, 0.16666666666666666, 0.16666666666666666, 0.16666666666666666;
    ( N, MA헤NA, NO OFICIAL, F, Sin Estrato, Si, Si ) 0.0, 0.2, 0.4, 0.4, 0.0, 0.0;
    ( N, MA헤NA, NO OFICIAL, M, Estrato 1, No, No ) 0.0, 0.0547945205479452, 0.7808219178082192, 0.1095890410958904, 0.0547945205479452, 0.0;
    ( N, MA헤NA, NO OFICIAL, M, Estrato 1, No, Si ) 0.0, 0.14678899082568808, 0.6513761467889908, 0.2018348623853211, 0.0, 0.0;
    ( N, MA헤NA, NO OFICIAL, M, Estrato 1, Si, No ) 0.0, 0.0, 1.0, 0.0, 0.0, 0.0;
    ( N, MA헤NA, NO OFICIAL, M, Estrato 1, Si, Si ) 0.0, 0.04054054054054054, 0.6756756756756757, 0.22972972972972974, 0.05405405405405406, 0.0;
    ( N, MA헤NA, NO OFICIAL, M, Estrato 2, No, No ) 0.0, 0.15384615384615385, 0.717948717948718, 0.07692307692307693, 0.05128205128205128, 0.0;
    ( N, MA헤NA, NO OFICIAL, M, Estrato 2, No, Si ) 0.0, 0.08333333333333333, 0.6180555555555556, 0.22916666666666666, 0.06944444444444445, 0.0;
    ( N, MA헤NA, NO OFICIAL, M, Estrato 2, Si, No ) 0.0, 0.0, 0.8666666666666667, 0.0, 0.13333333333333333, 0.0;
    ( N, MA헤NA, NO OFICIAL, M, Estrato 2, Si, Si ) 0.0, 0.0783289817232376, 0.5065274151436031, 0.35509138381201044, 0.05483028720626632, 0.005221932114882507;
    ( N, MA헤NA, NO OFICIAL, M, Estrato 3, No, No ) 0.0, 0.4, 0.4, 0.2, 0.0, 0.0;
    ( N, MA헤NA, NO OFICIAL, M, Estrato 3, No, Si ) 0.0, 0.1590909090909091, 0.6590909090909091, 0.18181818181818182, 0.0, 0.0;
    ( N, MA헤NA, NO OFICIAL, M, Estrato 3, Si, No ) 0.0, 0.2, 0.6, 0.0, 0.2, 0.0;
    ( N, MA헤NA, NO OFICIAL, M, Estrato 3, Si, Si ) 0.0, 0.06188118811881188, 0.594059405940594, 0.29455445544554454, 0.04950495049504951, 0.0;
    ( N, MA헤NA, NO OFICIAL, M, Estrato 4, No, No ) 0.16666666666666666, 0.16666666666666666, 0.16666666666666666, 0.16666666666666666, 0.16666666666666666, 0.16666666666666666;
    ( N, MA헤NA, NO OFICIAL, M, Estrato 4, No, Si ) 0.0, 0.3, 0.6, 0.1, 0.0, 0.0;
    ( N, MA헤NA, NO OFICIAL, M, Estrato 4, Si, No ) 0.0, 0.0, 1.0, 0.0, 0.0, 0.0;
    ( N, MA헤NA, NO OFICIAL, M, Estrato 4, Si, Si ) 0.0, 0.04477611940298507, 0.5522388059701493, 0.3283582089552239, 0.07462686567164178, 0.0;
    ( N, MA헤NA, NO OFICIAL, M, Estrato 5, No, No ) 0.16666666666666666, 0.16666666666666666, 0.16666666666666666, 0.16666666666666666, 0.16666666666666666, 0.16666666666666666;
    ( N, MA헤NA, NO OFICIAL, M, Estrato 5, No, Si ) 0.0, 0.0, 0.5, 0.5, 0.0, 0.0;
    ( N, MA헤NA, NO OFICIAL, M, Estrato 5, Si, No ) 0.16666666666666666, 0.16666666666666666, 0.16666666666666666, 0.16666666666666666, 0.16666666666666666, 0.16666666666666666;
    ( N, MA헤NA, NO OFICIAL, M, Estrato 5, Si, Si ) 0.0, 0.0625, 0.2916666666666667, 0.5208333333333334, 0.125, 0.0;
    ( N, MA헤NA, NO OFICIAL, M, Estrato 6, No, No ) 0.16666666666666666, 0.16666666666666666, 0.16666666666666666, 0.16666666666666666, 0.16666666666666666, 0.16666666666666666;
    ( N, MA헤NA, NO OFICIAL, M, Estrato 6, No, Si ) 0.0, 0.0, 0.0, 1.0, 0.0, 0.0;
    ( N, MA헤NA, NO OFICIAL, M, Estrato 6, Si, No ) 0.16666666666666666, 0.16666666666666666, 0.16666666666666666, 0.16666666666666666, 0.16666666666666666, 0.16666666666666666;
    ( N, MA헤NA, NO OFICIAL, M, Estrato 6, Si, Si ) 0.0, 0.36363636363636365, 0.45454545454545453, 0.0, 0.18181818181818182, 0.0;
    ( N, MA헤NA, NO OFICIAL, M, Sin Estrato, No, No ) 0.0, 0.25, 0.75, 0.0, 0.0, 0.0;
    ( N, MA헤NA, NO OFICIAL, M, Sin Estrato, No, Si ) 0.0, 0.0, 0.5, 0.0, 0.5, 0.0;
    ( N, MA헤NA, NO OFICIAL, M, Sin Estrato, Si, No ) 0.16666666666666666, 0.16666666666666666, 0.16666666666666666, 0.16666666666666666, 0.16666666666666666, 0.16666666666666666;
    ( N, MA헤NA, NO OFICIAL, M, Sin Estrato, Si, Si ) 0.0, 0.0, 0.47368421052631576, 0.3157894736842105, 0.21052631578947367, 0.0;
    ( N, MA헤NA, OFICIAL, F, Estrato 1, No, No ) 0.0, 0.22684563758389262, 0.7194630872483222, 0.053691275167785234, 0.0, 0.0;
    ( N, MA헤NA, OFICIAL, F, Estrato 1, No, Si ) 0.0, 0.1810344827586207, 0.7413793103448276, 0.07327586206896551, 0.004310344827586207, 0.0;
    ( N, MA헤NA, OFICIAL, F, Estrato 1, Si, No ) 0.0, 0.21875, 0.6875, 0.09375, 0.0, 0.0;
    ( N, MA헤NA, OFICIAL, F, Estrato 1, Si, Si ) 0.0, 0.11347517730496454, 0.7446808510638298, 0.14184397163120568, 0.0, 0.0;
    ( N, MA헤NA, OFICIAL, F, Estrato 2, No, No ) 0.0, 0.17553191489361702, 0.7340425531914894, 0.09042553191489362, 0.0, 0.0;
    ( N, MA헤NA, OFICIAL, F, Estrato 2, No, Si ) 0.0, 0.12195121951219512, 0.7845528455284553, 0.08536585365853659, 0.008130081300813009, 0.0;
    ( N, MA헤NA, OFICIAL, F, Estrato 2, Si, No ) 0.0, 0.2727272727272727, 0.6818181818181818, 0.045454545454545456, 0.0, 0.0;
    ( N, MA헤NA, OFICIAL, F, Estrato 2, Si, Si ) 0.0, 0.07053941908713693, 0.7510373443983402, 0.17012448132780084, 0.008298755186721992, 0.0;
    ( N, MA헤NA, OFICIAL, F, Estrato 3, No, No ) 0.0, 0.4827586206896552, 0.5172413793103449, 0.0, 0.0, 0.0;
    ( N, MA헤NA, OFICIAL, F, Estrato 3, No, Si ) 0.0, 0.1717171717171717, 0.7272727272727273, 0.08080808080808081, 0.020202020202020204, 0.0;
    ( N, MA헤NA, OFICIAL, F, Estrato 3, Si, No ) 0.0, 0.125, 0.875, 0.0, 0.0, 0.0;
    ( N, MA헤NA, OFICIAL, F, Estrato 3, Si, Si ) 0.0, 0.09302325581395349, 0.7286821705426356, 0.16279069767441862, 0.015503875968992248, 0.0;
    ( N, MA헤NA, OFICIAL, F, Estrato 4, No, No ) 0.0, 0.44, 0.56, 0.0, 0.0, 0.0;
    ( N, MA헤NA, OFICIAL, F, Estrato 4, No, Si ) 0.0, 0.29411764705882354, 0.6470588235294118, 0.058823529411764705, 0.0, 0.0;
    ( N, MA헤NA, OFICIAL, F, Estrato 4, Si, No ) 0.16666666666666666, 0.16666666666666666, 0.16666666666666666, 0.16666666666666666, 0.16666666666666666, 0.16666666666666666;
    ( N, MA헤NA, OFICIAL, F, Estrato 4, Si, Si ) 0.0, 0.16666666666666666, 0.625, 0.20833333333333334, 0.0, 0.0;
    ( N, MA헤NA, OFICIAL, F, Estrato 5, No, No ) 0.0, 0.42857142857142855, 0.5714285714285714, 0.0, 0.0, 0.0;
    ( N, MA헤NA, OFICIAL, F, Estrato 5, No, Si ) 0.0, 0.375, 0.625, 0.0, 0.0, 0.0;
    ( N, MA헤NA, OFICIAL, F, Estrato 5, Si, No ) 0.0, 0.0, 1.0, 0.0, 0.0, 0.0;
    ( N, MA헤NA, OFICIAL, F, Estrato 5, Si, Si ) 0.0, 0.2222222222222222, 0.6666666666666666, 0.1111111111111111, 0.0, 0.0;
    ( N, MA헤NA, OFICIAL, F, Estrato 6, No, No ) 0.0, 0.6666666666666666, 0.3333333333333333, 0.0, 0.0, 0.0;
    ( N, MA헤NA, OFICIAL, F, Estrato 6, No, Si ) 0.0, 1.0, 0.0, 0.0, 0.0, 0.0;
    ( N, MA헤NA, OFICIAL, F, Estrato 6, Si, No ) 0.0, 1.0, 0.0, 0.0, 0.0, 0.0;
    ( N, MA헤NA, OFICIAL, F, Estrato 6, Si, Si ) 0.0, 0.4, 0.6, 0.0, 0.0, 0.0;
    ( N, MA헤NA, OFICIAL, F, Sin Estrato, No, No ) 0.0, 0.3472222222222222, 0.6111111111111112, 0.041666666666666664, 0.0, 0.0;
    ( N, MA헤NA, OFICIAL, F, Sin Estrato, No, Si ) 0.0, 0.23809523809523808, 0.7619047619047619, 0.0, 0.0, 0.0;
    ( N, MA헤NA, OFICIAL, F, Sin Estrato, Si, No ) 0.0, 0.6, 0.2, 0.2, 0.0, 0.0;
    ( N, MA헤NA, OFICIAL, F, Sin Estrato, Si, Si ) 0.0, 0.36363636363636365, 0.5454545454545454, 0.09090909090909091, 0.0, 0.0;
    ( N, MA헤NA, OFICIAL, M, Estrato 1, No, No ) 0.0, 0.21030042918454936, 0.7424892703862661, 0.04291845493562232, 0.004291845493562232, 0.0;
    ( N, MA헤NA, OFICIAL, M, Estrato 1, No, Si ) 0.0, 0.16666666666666666, 0.7333333333333333, 0.09444444444444444, 0.005555555555555556, 0.0;
    ( N, MA헤NA, OFICIAL, M, Estrato 1, Si, No ) 0.0, 0.3, 0.6, 0.1, 0.0, 0.0;
    ( N, MA헤NA, OFICIAL, M, Estrato 1, Si, Si ) 0.0, 0.125, 0.6607142857142857, 0.19642857142857142, 0.017857142857142856, 0.0;
    ( N, MA헤NA, OFICIAL, M, Estrato 2, No, No ) 0.0, 0.24113475177304963, 0.7163120567375887, 0.0425531914893617, 0.0, 0.0;
    ( N, MA헤NA, OFICIAL, M, Estrato 2, No, Si ) 0.0, 0.10989010989010989, 0.7692307692307693, 0.11538461538461539, 0.005494505494505495, 0.0;
    ( N, MA헤NA, OFICIAL, M, Estrato 2, Si, No ) 0.0, 0.09523809523809523, 0.9047619047619048, 0.0, 0.0, 0.0;
    ( N, MA헤NA, OFICIAL, M, Estrato 2, Si, Si ) 0.0, 0.10454545454545454, 0.7227272727272728, 0.1409090909090909, 0.031818181818181815, 0.0;
    ( N, MA헤NA, OFICIAL, M, Estrato 3, No, No ) 0.0, 0.35185185185185186, 0.6481481481481481, 0.0, 0.0, 0.0;
    ( N, MA헤NA, OFICIAL, M, Estrato 3, No, Si ) 0.0, 0.17777777777777778, 0.6777777777777778, 0.13333333333333333, 0.011111111111111112, 0.0;
    ( N, MA헤NA, OFICIAL, M, Estrato 3, Si, No ) 0.0, 0.4, 0.6, 0.0, 0.0, 0.0;
    ( N, MA헤NA, OFICIAL, M, Estrato 3, Si, Si ) 0.0, 0.16883116883116883, 0.6688311688311688, 0.14935064935064934, 0.012987012987012988, 0.0;
    ( N, MA헤NA, OFICIAL, M, Estrato 4, No, No ) 0.0, 0.5714285714285714, 0.42857142857142855, 0.0, 0.0, 0.0;
    ( N, MA헤NA, OFICIAL, M, Estrato 4, No, Si ) 0.0, 0.3235294117647059, 0.6176470588235294, 0.058823529411764705, 0.0, 0.0;
    ( N, MA헤NA, OFICIAL, M, Estrato 4, Si, No ) 0.0, 0.6, 0.4, 0.0, 0.0, 0.0;
    ( N, MA헤NA, OFICIAL, M, Estrato 4, Si, Si ) 0.0, 0.2222222222222222, 0.5833333333333334, 0.19444444444444445, 0.0, 0.0;
    ( N, MA헤NA, OFICIAL, M, Estrato 5, No, No ) 0.0, 0.6, 0.4, 0.0, 0.0, 0.0;
    ( N, MA헤NA, OFICIAL, M, Estrato 5, No, Si ) 0.0, 0.6, 0.4, 0.0, 0.0, 0.0;
    ( N, MA헤NA, OFICIAL, M, Estrato 5, Si, No ) 0.0, 0.0, 1.0, 0.0, 0.0, 0.0;
    ( N, MA헤NA, OFICIAL, M, Estrato 5, Si, Si ) 0.0, 0.6923076923076923, 0.23076923076923078, 0.07692307692307693, 0.0, 0.0;
    ( N, MA헤NA, OFICIAL, M, Estrato 6, No, No ) 0.0, 0.6666666666666666, 0.3333333333333333, 0.0, 0.0, 0.0;
    ( N, MA헤NA, OFICIAL, M, Estrato 6, No, Si ) 0.0, 0.75, 0.25, 0.0, 0.0, 0.0;
    ( N, MA헤NA, OFICIAL, M, Estrato 6, Si, No ) 0.16666666666666666, 0.16666666666666666, 0.16666666666666666, 0.16666666666666666, 0.16666666666666666, 0.16666666666666666;
    ( N, MA헤NA, OFICIAL, M, Estrato 6, Si, Si ) 0.0, 1.0, 0.0, 0.0, 0.0, 0.0;
    ( N, MA헤NA, OFICIAL, M, Sin Estrato, No, No ) 0.0, 0.46938775510204084, 0.5306122448979592, 0.0, 0.0, 0.0;
    ( N, MA헤NA, OFICIAL, M, Sin Estrato, No, Si ) 0.0, 0.4, 0.48, 0.12, 0.0, 0.0;
    ( N, MA헤NA, OFICIAL, M, Sin Estrato, Si, No ) 0.0, 0.6, 0.4, 0.0, 0.0, 0.0;
    ( N, MA헤NA, OFICIAL, M, Sin Estrato, Si, Si ) 0.047619047619047616, 0.23809523809523808, 0.6190476190476191, 0.09523809523809523, 0.0, 0.0;
    ( N, NOCHE, NO OFICIAL, F, Estrato 1, No, No ) 0.16666666666666666, 0.16666666666666666, 0.16666666666666666, 0.16666666666666666, 0.16666666666666666, 0.16666666666666666;
    ( N, NOCHE, NO OFICIAL, F, Estrato 1, No, Si ) 0.16666666666666666, 0.16666666666666666, 0.16666666666666666, 0.16666666666666666, 0.16666666666666666, 0.16666666666666666;
    ( N, NOCHE, NO OFICIAL, F, Estrato 1, Si, No ) 0.0, 0.0, 1.0, 0.0, 0.0, 0.0;
    ( N, NOCHE, NO OFICIAL, F, Estrato 1, Si, Si ) 0.16666666666666666, 0.16666666666666666, 0.16666666666666666, 0.16666666666666666, 0.16666666666666666, 0.16666666666666666;
    ( N, NOCHE, NO OFICIAL, F, Estrato 2, No, No ) 0.16666666666666666, 0.16666666666666666, 0.16666666666666666, 0.16666666666666666, 0.16666666666666666, 0.16666666666666666;
    ( N, NOCHE, NO OFICIAL, F, Estrato 2, No, Si ) 0.16666666666666666, 0.16666666666666666, 0.16666666666666666, 0.16666666666666666, 0.16666666666666666, 0.16666666666666666;
    ( N, NOCHE, NO OFICIAL, F, Estrato 2, Si, No ) 0.16666666666666666, 0.16666666666666666, 0.16666666666666666, 0.16666666666666666, 0.16666666666666666, 0.16666666666666666;
    ( N, NOCHE, NO OFICIAL, F, Estrato 2, Si, Si ) 0.0, 0.0, 1.0, 0.0, 0.0, 0.0;
    ( N, NOCHE, NO OFICIAL, F, Estrato 3, No, No ) 0.16666666666666666, 0.16666666666666666, 0.16666666666666666, 0.16666666666666666, 0.16666666666666666, 0.16666666666666666;
    ( N, NOCHE, NO OFICIAL, F, Estrato 3, No, Si ) 0.16666666666666666, 0.16666666666666666, 0.16666666666666666, 0.16666666666666666, 0.16666666666666666, 0.16666666666666666;
    ( N, NOCHE, NO OFICIAL, F, Estrato 3, Si, No ) 0.16666666666666666, 0.16666666666666666, 0.16666666666666666, 0.16666666666666666, 0.16666666666666666, 0.16666666666666666;
    ( N, NOCHE, NO OFICIAL, F, Estrato 3, Si, Si ) 0.16666666666666666, 0.16666666666666666, 0.16666666666666666, 0.16666666666666666, 0.16666666666666666, 0.16666666666666666;
    ( N, NOCHE, NO OFICIAL, F, Estrato 4, No, No ) 0.16666666666666666, 0.16666666666666666, 0.16666666666666666, 0.16666666666666666, 0.16666666666666666, 0.16666666666666666;
    ( N, NOCHE, NO OFICIAL, F, Estrato 4, No, Si ) 0.16666666666666666, 0.16666666666666666, 0.16666666666666666, 0.16666666666666666, 0.16666666666666666, 0.16666666666666666;
    ( N, NOCHE, NO OFICIAL, F, Estrato 4, Si, No ) 0.16666666666666666, 0.16666666666666666, 0.16666666666666666, 0.16666666666666666, 0.16666666666666666, 0.16666666666666666;
    ( N, NOCHE, NO OFICIAL, F, Estrato 4, Si, Si ) 0.16666666666666666, 0.16666666666666666, 0.16666666666666666, 0.16666666666666666, 0.16666666666666666, 0.16666666666666666;
    ( N, NOCHE, NO OFICIAL, F, Estrato 5, No, No ) 0.16666666666666666, 0.16666666666666666, 0.16666666666666666, 0.16666666666666666, 0.16666666666666666, 0.16666666666666666;
    ( N, NOCHE, NO OFICIAL, F, Estrato 5, No, Si ) 0.16666666666666666, 0.16666666666666666, 0.16666666666666666, 0.16666666666666666, 0.16666666666666666, 0.16666666666666666;
    ( N, NOCHE, NO OFICIAL, F, Estrato 5, Si, No ) 0.16666666666666666, 0.16666666666666666, 0.16666666666666666, 0.16666666666666666, 0.16666666666666666, 0.16666666666666666;
    ( N, NOCHE, NO OFICIAL, F, Estrato 5, Si, Si ) 0.16666666666666666, 0.16666666666666666, 0.16666666666666666, 0.16666666666666666, 0.16666666666666666, 0.16666666666666666;
    ( N, NOCHE, NO OFICIAL, F, Estrato 6, No, No ) 0.16666666666666666, 0.16666666666666666, 0.16666666666666666, 0.16666666666666666, 0.16666666666666666, 0.16666666666666666;
    ( N, NOCHE, NO OFICIAL, F, Estrato 6, No, Si ) 0.16666666666666666, 0.16666666666666666, 0.16666666666666666, 0.16666666666666666, 0.16666666666666666, 0.16666666666666666;
    ( N, NOCHE, NO OFICIAL, F, Estrato 6, Si, No ) 0.16666666666666666, 0.16666666666666666, 0.16666666666666666, 0.16666666666666666, 0.16666666666666666, 0.16666666666666666;
    ( N, NOCHE, NO OFICIAL, F, Estrato 6, Si, Si ) 0.16666666666666666, 0.16666666666666666, 0.16666666666666666, 0.16666666666666666, 0.16666666666666666, 0.16666666666666666;
    ( N, NOCHE, NO OFICIAL, F, Sin Estrato, No, No ) 0.16666666666666666, 0.16666666666666666, 0.16666666666666666, 0.16666666666666666, 0.16666666666666666, 0.16666666666666666;
    ( N, NOCHE, NO OFICIAL, F, Sin Estrato, No, Si ) 0.16666666666666666, 0.16666666666666666, 0.16666666666666666, 0.16666666666666666, 0.16666666666666666, 0.16666666666666666;
    ( N, NOCHE, NO OFICIAL, F, Sin Estrato, Si, No ) 0.16666666666666666, 0.16666666666666666, 0.16666666666666666, 0.16666666666666666, 0.16666666666666666, 0.16666666666666666;
    ( N, NOCHE, NO OFICIAL, F, Sin Estrato, Si, Si ) 0.16666666666666666, 0.16666666666666666, 0.16666666666666666, 0.16666666666666666, 0.16666666666666666, 0.16666666666666666;
    ( N, NOCHE, NO OFICIAL, M, Estrato 1, No, No ) 0.16666666666666666, 0.16666666666666666, 0.16666666666666666, 0.16666666666666666, 0.16666666666666666, 0.16666666666666666;
    ( N, NOCHE, NO OFICIAL, M, Estrato 1, No, Si ) 0.16666666666666666, 0.16666666666666666, 0.16666666666666666, 0.16666666666666666, 0.16666666666666666, 0.16666666666666666;
    ( N, NOCHE, NO OFICIAL, M, Estrato 1, Si, No ) 0.16666666666666666, 0.16666666666666666, 0.16666666666666666, 0.16666666666666666, 0.16666666666666666, 0.16666666666666666;
    ( N, NOCHE, NO OFICIAL, M, Estrato 1, Si, Si ) 0.16666666666666666, 0.16666666666666666, 0.16666666666666666, 0.16666666666666666, 0.16666666666666666, 0.16666666666666666;
    ( N, NOCHE, NO OFICIAL, M, Estrato 2, No, No ) 0.16666666666666666, 0.16666666666666666, 0.16666666666666666, 0.16666666666666666, 0.16666666666666666, 0.16666666666666666;
    ( N, NOCHE, NO OFICIAL, M, Estrato 2, No, Si ) 0.16666666666666666, 0.16666666666666666, 0.16666666666666666, 0.16666666666666666, 0.16666666666666666, 0.16666666666666666;
    ( N, NOCHE, NO OFICIAL, M, Estrato 2, Si, No ) 0.16666666666666666, 0.16666666666666666, 0.16666666666666666, 0.16666666666666666, 0.16666666666666666, 0.16666666666666666;
    ( N, NOCHE, NO OFICIAL, M, Estrato 2, Si, Si ) 0.16666666666666666, 0.16666666666666666, 0.16666666666666666, 0.16666666666666666, 0.16666666666666666, 0.16666666666666666;
    ( N, NOCHE, NO OFICIAL, M, Estrato 3, No, No ) 0.16666666666666666, 0.16666666666666666, 0.16666666666666666, 0.16666666666666666, 0.16666666666666666, 0.16666666666666666;
    ( N, NOCHE, NO OFICIAL, M, Estrato 3, No, Si ) 0.16666666666666666, 0.16666666666666666, 0.16666666666666666, 0.16666666666666666, 0.16666666666666666, 0.16666666666666666;
    ( N, NOCHE, NO OFICIAL, M, Estrato 3, Si, No ) 0.16666666666666666, 0.16666666666666666, 0.16666666666666666, 0.16666666666666666, 0.16666666666666666, 0.16666666666666666;
    ( N, NOCHE, NO OFICIAL, M, Estrato 3, Si, Si ) 0.16666666666666666, 0.16666666666666666, 0.16666666666666666, 0.16666666666666666, 0.16666666666666666, 0.16666666666666666;
    ( N, NOCHE, NO OFICIAL, M, Estrato 4, No, No ) 0.16666666666666666, 0.16666666666666666, 0.16666666666666666, 0.16666666666666666, 0.16666666666666666, 0.16666666666666666;
    ( N, NOCHE, NO OFICIAL, M, Estrato 4, No, Si ) 0.16666666666666666, 0.16666666666666666, 0.16666666666666666, 0.16666666666666666, 0.16666666666666666, 0.16666666666666666;
    ( N, NOCHE, NO OFICIAL, M, Estrato 4, Si, No ) 0.16666666666666666, 0.16666666666666666, 0.16666666666666666, 0.16666666666666666, 0.16666666666666666, 0.16666666666666666;
    ( N, NOCHE, NO OFICIAL, M, Estrato 4, Si, Si ) 0.16666666666666666, 0.16666666666666666, 0.16666666666666666, 0.16666666666666666, 0.16666666666666666, 0.16666666666666666;
    ( N, NOCHE, NO OFICIAL, M, Estrato 5, No, No ) 0.16666666666666666, 0.16666666666666666, 0.16666666666666666, 0.16666666666666666, 0.16666666666666666, 0.16666666666666666;
    ( N, NOCHE, NO OFICIAL, M, Estrato 5, No, Si ) 0.16666666666666666, 0.16666666666666666, 0.16666666666666666, 0.16666666666666666, 0.16666666666666666, 0.16666666666666666;
    ( N, NOCHE, NO OFICIAL, M, Estrato 5, Si, No ) 0.16666666666666666, 0.16666666666666666, 0.16666666666666666, 0.16666666666666666, 0.16666666666666666, 0.16666666666666666;
    ( N, NOCHE, NO OFICIAL, M, Estrato 5, Si, Si ) 0.0, 0.0, 1.0, 0.0, 0.0, 0.0;
    ( N, NOCHE, NO OFICIAL, M, Estrato 6, No, No ) 0.16666666666666666, 0.16666666666666666, 0.16666666666666666, 0.16666666666666666, 0.16666666666666666, 0.16666666666666666;
    ( N, NOCHE, NO OFICIAL, M, Estrato 6, No, Si ) 0.16666666666666666, 0.16666666666666666, 0.16666666666666666, 0.16666666666666666, 0.16666666666666666, 0.16666666666666666;
    ( N, NOCHE, NO OFICIAL, M, Estrato 6, Si, No ) 0.16666666666666666, 0.16666666666666666, 0.16666666666666666, 0.16666666666666666, 0.16666666666666666, 0.16666666666666666;
    ( N, NOCHE, NO OFICIAL, M, Estrato 6, Si, Si ) 0.16666666666666666, 0.16666666666666666, 0.16666666666666666, 0.16666666666666666, 0.16666666666666666, 0.16666666666666666;
    ( N, NOCHE, NO OFICIAL, M, Sin Estrato, No, No ) 0.16666666666666666, 0.16666666666666666, 0.16666666666666666, 0.16666666666666666, 0.16666666666666666, 0.16666666666666666;
    ( N, NOCHE, NO OFICIAL, M, Sin Estrato, No, Si ) 0.16666666666666666, 0.16666666666666666, 0.16666666666666666, 0.16666666666666666, 0.16666666666666666, 0.16666666666666666;
    ( N, NOCHE, NO OFICIAL, M, Sin Estrato, Si, No ) 0.16666666666666666, 0.16666666666666666, 0.16666666666666666, 0.16666666666666666, 0.16666666666666666, 0.16666666666666666;
    ( N, NOCHE, NO OFICIAL, M, Sin Estrato, Si, Si ) 0.16666666666666666, 0.16666666666666666, 0.16666666666666666, 0.16666666666666666, 0.16666666666666666, 0.16666666666666666;
    ( N, NOCHE, OFICIAL, F, Estrato 1, No, No ) 0.0, 0.4666666666666667, 0.5238095238095238, 0.009523809523809525, 0.0, 0.0;
    ( N, NOCHE, OFICIAL, F, Estrato 1, No, Si ) 0.0, 0.42424242424242425, 0.5757575757575758, 0.0, 0.0, 0.0;
    ( N, NOCHE, OFICIAL, F, Estrato 1, Si, No ) 0.0, 0.4, 0.6, 0.0, 0.0, 0.0;
    ( N, NOCHE, OFICIAL, F, Estrato 1, Si, Si ) 0.0, 0.29411764705882354, 0.7058823529411765, 0.0, 0.0, 0.0;
    ( N, NOCHE, OFICIAL, F, Estrato 2, No, No ) 0.0, 0.46808510638297873, 0.5319148936170213, 0.0, 0.0, 0.0;
    ( N, NOCHE, OFICIAL, F, Estrato 2, No, Si ) 0.021739130434782608, 0.2826086956521739, 0.6739130434782609, 0.0, 0.021739130434782608, 0.0;
    ( N, NOCHE, OFICIAL, F, Estrato 2, Si, No ) 0.0, 0.3333333333333333, 0.6666666666666666, 0.0, 0.0, 0.0;
    ( N, NOCHE, OFICIAL, F, Estrato 2, Si, Si ) 0.0, 0.5, 0.5, 0.0, 0.0, 0.0;
    ( N, NOCHE, OFICIAL, F, Estrato 3, No, No ) 0.0, 0.5, 0.5, 0.0, 0.0, 0.0;
    ( N, NOCHE, OFICIAL, F, Estrato 3, No, Si ) 0.0, 0.5, 0.5, 0.0, 0.0, 0.0;
    ( N, NOCHE, OFICIAL, F, Estrato 3, Si, No ) 0.16666666666666666, 0.16666666666666666, 0.16666666666666666, 0.16666666666666666, 0.16666666666666666, 0.16666666666666666;
    ( N, NOCHE, OFICIAL, F, Estrato 3, Si, Si ) 0.0, 0.5789473684210527, 0.42105263157894735, 0.0, 0.0, 0.0;
    ( N, NOCHE, OFICIAL, F, Estrato 4, No, No ) 0.0, 0.6428571428571429, 0.35714285714285715, 0.0, 0.0, 0.0;
    ( N, NOCHE, OFICIAL, F, Estrato 4, No, Si ) 0.0, 0.8333333333333334, 0.16666666666666666, 0.0, 0.0, 0.0;
    ( N, NOCHE, OFICIAL, F, Estrato 4, Si, No ) 0.16666666666666666, 0.16666666666666666, 0.16666666666666666, 0.16666666666666666, 0.16666666666666666, 0.16666666666666666;
    ( N, NOCHE, OFICIAL, F, Estrato 4, Si, Si ) 0.0, 0.0, 1.0, 0.0, 0.0, 0.0;
    ( N, NOCHE, OFICIAL, F, Estrato 5, No, No ) 0.0, 0.42857142857142855, 0.5714285714285714, 0.0, 0.0, 0.0;
    ( N, NOCHE, OFICIAL, F, Estrato 5, No, Si ) 0.0, 0.0, 1.0, 0.0, 0.0, 0.0;
    ( N, NOCHE, OFICIAL, F, Estrato 5, Si, No ) 0.16666666666666666, 0.16666666666666666, 0.16666666666666666, 0.16666666666666666, 0.16666666666666666, 0.16666666666666666;
    ( N, NOCHE, OFICIAL, F, Estrato 5, Si, Si ) 0.0, 1.0, 0.0, 0.0, 0.0, 0.0;
    ( N, NOCHE, OFICIAL, F, Estrato 6, No, No ) 0.0, 0.3333333333333333, 0.6666666666666666, 0.0, 0.0, 0.0;
    ( N, NOCHE, OFICIAL, F, Estrato 6, No, Si ) 0.0, 1.0, 0.0, 0.0, 0.0, 0.0;
    ( N, NOCHE, OFICIAL, F, Estrato 6, Si, No ) 0.16666666666666666, 0.16666666666666666, 0.16666666666666666, 0.16666666666666666, 0.16666666666666666, 0.16666666666666666;
    ( N, NOCHE, OFICIAL, F, Estrato 6, Si, Si ) 0.16666666666666666, 0.16666666666666666, 0.16666666666666666, 0.16666666666666666, 0.16666666666666666, 0.16666666666666666;
    ( N, NOCHE, OFICIAL, F, Sin Estrato, No, No ) 0.0, 0.5, 0.5, 0.0, 0.0, 0.0;
    ( N, NOCHE, OFICIAL, F, Sin Estrato, No, Si ) 0.0, 0.5, 0.5, 0.0, 0.0, 0.0;
    ( N, NOCHE, OFICIAL, F, Sin Estrato, Si, No ) 0.0, 0.5, 0.5, 0.0, 0.0, 0.0;
    ( N, NOCHE, OFICIAL, F, Sin Estrato, Si, Si ) 0.0, 0.8, 0.2, 0.0, 0.0, 0.0;
    ( N, NOCHE, OFICIAL, M, Estrato 1, No, No ) 0.0, 0.38823529411764707, 0.611764705882353, 0.0, 0.0, 0.0;
    ( N, NOCHE, OFICIAL, M, Estrato 1, No, Si ) 0.0, 0.2571428571428571, 0.7142857142857143, 0.02857142857142857, 0.0, 0.0;
    ( N, NOCHE, OFICIAL, M, Estrato 1, Si, No ) 0.0, 1.0, 0.0, 0.0, 0.0, 0.0;
    ( N, NOCHE, OFICIAL, M, Estrato 1, Si, Si ) 0.0, 0.48484848484848486, 0.45454545454545453, 0.06060606060606061, 0.0, 0.0;
    ( N, NOCHE, OFICIAL, M, Estrato 2, No, No ) 0.0, 0.2571428571428571, 0.7428571428571429, 0.0, 0.0, 0.0;
    ( N, NOCHE, OFICIAL, M, Estrato 2, No, Si ) 0.0, 0.3783783783783784, 0.5675675675675675, 0.05405405405405406, 0.0, 0.0;
    ( N, NOCHE, OFICIAL, M, Estrato 2, Si, No ) 0.0, 0.5, 0.5, 0.0, 0.0, 0.0;
    ( N, NOCHE, OFICIAL, M, Estrato 2, Si, Si ) 0.0, 0.2857142857142857, 0.7142857142857143, 0.0, 0.0, 0.0;
    ( N, NOCHE, OFICIAL, M, Estrato 3, No, No ) 0.0, 0.4166666666666667, 0.5833333333333334, 0.0, 0.0, 0.0;
    ( N, NOCHE, OFICIAL, M, Estrato 3, No, Si ) 0.0, 0.44, 0.56, 0.0, 0.0, 0.0;
    ( N, NOCHE, OFICIAL, M, Estrato 3, Si, No ) 0.0, 0.8, 0.2, 0.0, 0.0, 0.0;
    ( N, NOCHE, OFICIAL, M, Estrato 3, Si, Si ) 0.0, 0.07692307692307693, 0.9230769230769231, 0.0, 0.0, 0.0;
    ( N, NOCHE, OFICIAL, M, Estrato 4, No, No ) 0.0, 0.8571428571428571, 0.14285714285714285, 0.0, 0.0, 0.0;
    ( N, NOCHE, OFICIAL, M, Estrato 4, No, Si ) 0.0, 0.5, 0.5, 0.0, 0.0, 0.0;
    ( N, NOCHE, OFICIAL, M, Estrato 4, Si, No ) 0.0, 1.0, 0.0, 0.0, 0.0, 0.0;
    ( N, NOCHE, OFICIAL, M, Estrato 4, Si, Si ) 0.0, 1.0, 0.0, 0.0, 0.0, 0.0;
    ( N, NOCHE, OFICIAL, M, Estrato 5, No, No ) 0.0, 0.5, 0.5, 0.0, 0.0, 0.0;
    ( N, NOCHE, OFICIAL, M, Estrato 5, No, Si ) 0.0, 1.0, 0.0, 0.0, 0.0, 0.0;
    ( N, NOCHE, OFICIAL, M, Estrato 5, Si, No ) 0.0, 0.5, 0.5, 0.0, 0.0, 0.0;
    ( N, NOCHE, OFICIAL, M, Estrato 5, Si, Si ) 0.16666666666666666, 0.16666666666666666, 0.16666666666666666, 0.16666666666666666, 0.16666666666666666, 0.16666666666666666;
    ( N, NOCHE, OFICIAL, M, Estrato 6, No, No ) 0.0, 1.0, 0.0, 0.0, 0.0, 0.0;
    ( N, NOCHE, OFICIAL, M, Estrato 6, No, Si ) 0.0, 1.0, 0.0, 0.0, 0.0, 0.0;
    ( N, NOCHE, OFICIAL, M, Estrato 6, Si, No ) 0.0, 1.0, 0.0, 0.0, 0.0, 0.0;
    ( N, NOCHE, OFICIAL, M, Estrato 6, Si, Si ) 0.0, 1.0, 0.0, 0.0, 0.0, 0.0;
    ( N, NOCHE, OFICIAL, M, Sin Estrato, No, No ) 0.0, 0.5909090909090909, 0.4090909090909091, 0.0, 0.0, 0.0;
    ( N, NOCHE, OFICIAL, M, Sin Estrato, No, Si ) 0.0, 0.7777777777777778, 0.2222222222222222, 0.0, 0.0, 0.0;
    ( N, NOCHE, OFICIAL, M, Sin Estrato, Si, No ) 0.0, 1.0, 0.0, 0.0, 0.0, 0.0;
    ( N, NOCHE, OFICIAL, M, Sin Estrato, Si, Si ) 0.0, 0.75, 0.25, 0.0, 0.0, 0.0;
    ( N, SABATINA, NO OFICIAL, F, Estrato 1, No, No ) 0.16666666666666666, 0.16666666666666666, 0.16666666666666666, 0.16666666666666666, 0.16666666666666666, 0.16666666666666666;
    ( N, SABATINA, NO OFICIAL, F, Estrato 1, No, Si ) 0.16666666666666666, 0.16666666666666666, 0.16666666666666666, 0.16666666666666666, 0.16666666666666666, 0.16666666666666666;
    ( N, SABATINA, NO OFICIAL, F, Estrato 1, Si, No ) 0.16666666666666666, 0.16666666666666666, 0.16666666666666666, 0.16666666666666666, 0.16666666666666666, 0.16666666666666666;
    ( N, SABATINA, NO OFICIAL, F, Estrato 1, Si, Si ) 0.16666666666666666, 0.16666666666666666, 0.16666666666666666, 0.16666666666666666, 0.16666666666666666, 0.16666666666666666;
    ( N, SABATINA, NO OFICIAL, F, Estrato 2, No, No ) 0.16666666666666666, 0.16666666666666666, 0.16666666666666666, 0.16666666666666666, 0.16666666666666666, 0.16666666666666666;
    ( N, SABATINA, NO OFICIAL, F, Estrato 2, No, Si ) 0.16666666666666666, 0.16666666666666666, 0.16666666666666666, 0.16666666666666666, 0.16666666666666666, 0.16666666666666666;
    ( N, SABATINA, NO OFICIAL, F, Estrato 2, Si, No ) 0.16666666666666666, 0.16666666666666666, 0.16666666666666666, 0.16666666666666666, 0.16666666666666666, 0.16666666666666666;
    ( N, SABATINA, NO OFICIAL, F, Estrato 2, Si, Si ) 0.16666666666666666, 0.16666666666666666, 0.16666666666666666, 0.16666666666666666, 0.16666666666666666, 0.16666666666666666;
    ( N, SABATINA, NO OFICIAL, F, Estrato 3, No, No ) 0.16666666666666666, 0.16666666666666666, 0.16666666666666666, 0.16666666666666666, 0.16666666666666666, 0.16666666666666666;
    ( N, SABATINA, NO OFICIAL, F, Estrato 3, No, Si ) 0.16666666666666666, 0.16666666666666666, 0.16666666666666666, 0.16666666666666666, 0.16666666666666666, 0.16666666666666666;
    ( N, SABATINA, NO OFICIAL, F, Estrato 3, Si, No ) 0.16666666666666666, 0.16666666666666666, 0.16666666666666666, 0.16666666666666666, 0.16666666666666666, 0.16666666666666666;
    ( N, SABATINA, NO OFICIAL, F, Estrato 3, Si, Si ) 0.16666666666666666, 0.16666666666666666, 0.16666666666666666, 0.16666666666666666, 0.16666666666666666, 0.16666666666666666;
    ( N, SABATINA, NO OFICIAL, F, Estrato 4, No, No ) 0.16666666666666666, 0.16666666666666666, 0.16666666666666666, 0.16666666666666666, 0.16666666666666666, 0.16666666666666666;
    ( N, SABATINA, NO OFICIAL, F, Estrato 4, No, Si ) 0.16666666666666666, 0.16666666666666666, 0.16666666666666666, 0.16666666666666666, 0.16666666666666666, 0.16666666666666666;
    ( N, SABATINA, NO OFICIAL, F, Estrato 4, Si, No ) 0.16666666666666666, 0.16666666666666666, 0.16666666666666666, 0.16666666666666666, 0.16666666666666666, 0.16666666666666666;
    ( N, SABATINA, NO OFICIAL, F, Estrato 4, Si, Si ) 0.16666666666666666, 0.16666666666666666, 0.16666666666666666, 0.16666666666666666, 0.16666666666666666, 0.16666666666666666;
    ( N, SABATINA, NO OFICIAL, F, Estrato 5, No, No ) 0.16666666666666666, 0.16666666666666666, 0.16666666666666666, 0.16666666666666666, 0.16666666666666666, 0.16666666666666666;
    ( N, SABATINA, NO OFICIAL, F, Estrato 5, No, Si ) 0.16666666666666666, 0.16666666666666666, 0.16666666666666666, 0.16666666666666666, 0.16666666666666666, 0.16666666666666666;
    ( N, SABATINA, NO OFICIAL, F, Estrato 5, Si, No ) 0.16666666666666666, 0.16666666666666666, 0.16666666666666666, 0.16666666666666666, 0.16666666666666666, 0.16666666666666666;
    ( N, SABATINA, NO OFICIAL, F, Estrato 5, Si, Si ) 0.16666666666666666, 0.16666666666666666, 0.16666666666666666, 0.16666666666666666, 0.16666666666666666, 0.16666666666666666;
    ( N, SABATINA, NO OFICIAL, F, Estrato 6, No, No ) 0.16666666666666666, 0.16666666666666666, 0.16666666666666666, 0.16666666666666666, 0.16666666666666666, 0.16666666666666666;
    ( N, SABATINA, NO OFICIAL, F, Estrato 6, No, Si ) 0.16666666666666666, 0.16666666666666666, 0.16666666666666666, 0.16666666666666666, 0.16666666666666666, 0.16666666666666666;
    ( N, SABATINA, NO OFICIAL, F, Estrato 6, Si, No ) 0.16666666666666666, 0.16666666666666666, 0.16666666666666666, 0.16666666666666666, 0.16666666666666666, 0.16666666666666666;
    ( N, SABATINA, NO OFICIAL, F, Estrato 6, Si, Si ) 0.16666666666666666, 0.16666666666666666, 0.16666666666666666, 0.16666666666666666, 0.16666666666666666, 0.16666666666666666;
    ( N, SABATINA, NO OFICIAL, F, Sin Estrato, No, No ) 0.16666666666666666, 0.16666666666666666, 0.16666666666666666, 0.16666666666666666, 0.16666666666666666, 0.16666666666666666;
    ( N, SABATINA, NO OFICIAL, F, Sin Estrato, No, Si ) 0.16666666666666666, 0.16666666666666666, 0.16666666666666666, 0.16666666666666666, 0.16666666666666666, 0.16666666666666666;
    ( N, SABATINA, NO OFICIAL, F, Sin Estrato, Si, No ) 0.16666666666666666, 0.16666666666666666, 0.16666666666666666, 0.16666666666666666, 0.16666666666666666, 0.16666666666666666;
    ( N, SABATINA, NO OFICIAL, F, Sin Estrato, Si, Si ) 0.16666666666666666, 0.16666666666666666, 0.16666666666666666, 0.16666666666666666, 0.16666666666666666, 0.16666666666666666;
    ( N, SABATINA, NO OFICIAL, M, Estrato 1, No, No ) 0.16666666666666666, 0.16666666666666666, 0.16666666666666666, 0.16666666666666666, 0.16666666666666666, 0.16666666666666666;
    ( N, SABATINA, NO OFICIAL, M, Estrato 1, No, Si ) 0.16666666666666666, 0.16666666666666666, 0.16666666666666666, 0.16666666666666666, 0.16666666666666666, 0.16666666666666666;
    ( N, SABATINA, NO OFICIAL, M, Estrato 1, Si, No ) 0.16666666666666666, 0.16666666666666666, 0.16666666666666666, 0.16666666666666666, 0.16666666666666666, 0.16666666666666666;
    ( N, SABATINA, NO OFICIAL, M, Estrato 1, Si, Si ) 0.16666666666666666, 0.16666666666666666, 0.16666666666666666, 0.16666666666666666, 0.16666666666666666, 0.16666666666666666;
    ( N, SABATINA, NO OFICIAL, M, Estrato 2, No, No ) 0.16666666666666666, 0.16666666666666666, 0.16666666666666666, 0.16666666666666666, 0.16666666666666666, 0.16666666666666666;
    ( N, SABATINA, NO OFICIAL, M, Estrato 2, No, Si ) 0.16666666666666666, 0.16666666666666666, 0.16666666666666666, 0.16666666666666666, 0.16666666666666666, 0.16666666666666666;
    ( N, SABATINA, NO OFICIAL, M, Estrato 2, Si, No ) 0.16666666666666666, 0.16666666666666666, 0.16666666666666666, 0.16666666666666666, 0.16666666666666666, 0.16666666666666666;
    ( N, SABATINA, NO OFICIAL, M, Estrato 2, Si, Si ) 0.16666666666666666, 0.16666666666666666, 0.16666666666666666, 0.16666666666666666, 0.16666666666666666, 0.16666666666666666;
    ( N, SABATINA, NO OFICIAL, M, Estrato 3, No, No ) 0.16666666666666666, 0.16666666666666666, 0.16666666666666666, 0.16666666666666666, 0.16666666666666666, 0.16666666666666666;
    ( N, SABATINA, NO OFICIAL, M, Estrato 3, No, Si ) 0.16666666666666666, 0.16666666666666666, 0.16666666666666666, 0.16666666666666666, 0.16666666666666666, 0.16666666666666666;
    ( N, SABATINA, NO OFICIAL, M, Estrato 3, Si, No ) 0.16666666666666666, 0.16666666666666666, 0.16666666666666666, 0.16666666666666666, 0.16666666666666666, 0.16666666666666666;
    ( N, SABATINA, NO OFICIAL, M, Estrato 3, Si, Si ) 0.16666666666666666, 0.16666666666666666, 0.16666666666666666, 0.16666666666666666, 0.16666666666666666, 0.16666666666666666;
    ( N, SABATINA, NO OFICIAL, M, Estrato 4, No, No ) 0.16666666666666666, 0.16666666666666666, 0.16666666666666666, 0.16666666666666666, 0.16666666666666666, 0.16666666666666666;
    ( N, SABATINA, NO OFICIAL, M, Estrato 4, No, Si ) 0.16666666666666666, 0.16666666666666666, 0.16666666666666666, 0.16666666666666666, 0.16666666666666666, 0.16666666666666666;
    ( N, SABATINA, NO OFICIAL, M, Estrato 4, Si, No ) 0.16666666666666666, 0.16666666666666666, 0.16666666666666666, 0.16666666666666666, 0.16666666666666666, 0.16666666666666666;
    ( N, SABATINA, NO OFICIAL, M, Estrato 4, Si, Si ) 0.16666666666666666, 0.16666666666666666, 0.16666666666666666, 0.16666666666666666, 0.16666666666666666, 0.16666666666666666;
    ( N, SABATINA, NO OFICIAL, M, Estrato 5, No, No ) 0.16666666666666666, 0.16666666666666666, 0.16666666666666666, 0.16666666666666666, 0.16666666666666666, 0.16666666666666666;
    ( N, SABATINA, NO OFICIAL, M, Estrato 5, No, Si ) 0.16666666666666666, 0.16666666666666666, 0.16666666666666666, 0.16666666666666666, 0.16666666666666666, 0.16666666666666666;
    ( N, SABATINA, NO OFICIAL, M, Estrato 5, Si, No ) 0.16666666666666666, 0.16666666666666666, 0.16666666666666666, 0.16666666666666666, 0.16666666666666666, 0.16666666666666666;
    ( N, SABATINA, NO OFICIAL, M, Estrato 5, Si, Si ) 0.16666666666666666, 0.16666666666666666, 0.16666666666666666, 0.16666666666666666, 0.16666666666666666, 0.16666666666666666;
    ( N, SABATINA, NO OFICIAL, M, Estrato 6, No, No ) 0.16666666666666666, 0.16666666666666666, 0.16666666666666666, 0.16666666666666666, 0.16666666666666666, 0.16666666666666666;
    ( N, SABATINA, NO OFICIAL, M, Estrato 6, No, Si ) 0.16666666666666666, 0.16666666666666666, 0.16666666666666666, 0.16666666666666666, 0.16666666666666666, 0.16666666666666666;
    ( N, SABATINA, NO OFICIAL, M, Estrato 6, Si, No ) 0.16666666666666666, 0.16666666666666666, 0.16666666666666666, 0.16666666666666666, 0.16666666666666666, 0.16666666666666666;
    ( N, SABATINA, NO OFICIAL, M, Estrato 6, Si, Si ) 0.16666666666666666, 0.16666666666666666, 0.16666666666666666, 0.16666666666666666, 0.16666666666666666, 0.16666666666666666;
    ( N, SABATINA, NO OFICIAL, M, Sin Estrato, No, No ) 0.16666666666666666, 0.16666666666666666, 0.16666666666666666, 0.16666666666666666, 0.16666666666666666, 0.16666666666666666;
    ( N, SABATINA, NO OFICIAL, M, Sin Estrato, No, Si ) 0.16666666666666666, 0.16666666666666666, 0.16666666666666666, 0.16666666666666666, 0.16666666666666666, 0.16666666666666666;
    ( N, SABATINA, NO OFICIAL, M, Sin Estrato, Si, No ) 0.16666666666666666, 0.16666666666666666, 0.16666666666666666, 0.16666666666666666, 0.16666666666666666, 0.16666666666666666;
    ( N, SABATINA, NO OFICIAL, M, Sin Estrato, Si, Si ) 0.16666666666666666, 0.16666666666666666, 0.16666666666666666, 0.16666666666666666, 0.16666666666666666, 0.16666666666666666;
    ( N, SABATINA, OFICIAL, F, Estrato 1, No, No ) 0.16666666666666666, 0.16666666666666666, 0.16666666666666666, 0.16666666666666666, 0.16666666666666666, 0.16666666666666666;
    ( N, SABATINA, OFICIAL, F, Estrato 1, No, Si ) 0.16666666666666666, 0.16666666666666666, 0.16666666666666666, 0.16666666666666666, 0.16666666666666666, 0.16666666666666666;
    ( N, SABATINA, OFICIAL, F, Estrato 1, Si, No ) 0.16666666666666666, 0.16666666666666666, 0.16666666666666666, 0.16666666666666666, 0.16666666666666666, 0.16666666666666666;
    ( N, SABATINA, OFICIAL, F, Estrato 1, Si, Si ) 0.0, 0.0, 1.0, 0.0, 0.0, 0.0;
    ( N, SABATINA, OFICIAL, F, Estrato 2, No, No ) 0.0, 0.0, 1.0, 0.0, 0.0, 0.0;
    ( N, SABATINA, OFICIAL, F, Estrato 2, No, Si ) 0.16666666666666666, 0.16666666666666666, 0.16666666666666666, 0.16666666666666666, 0.16666666666666666, 0.16666666666666666;
    ( N, SABATINA, OFICIAL, F, Estrato 2, Si, No ) 0.16666666666666666, 0.16666666666666666, 0.16666666666666666, 0.16666666666666666, 0.16666666666666666, 0.16666666666666666;
    ( N, SABATINA, OFICIAL, F, Estrato 2, Si, Si ) 0.16666666666666666, 0.16666666666666666, 0.16666666666666666, 0.16666666666666666, 0.16666666666666666, 0.16666666666666666;
    ( N, SABATINA, OFICIAL, F, Estrato 3, No, No ) 0.16666666666666666, 0.16666666666666666, 0.16666666666666666, 0.16666666666666666, 0.16666666666666666, 0.16666666666666666;
    ( N, SABATINA, OFICIAL, F, Estrato 3, No, Si ) 0.0, 1.0, 0.0, 0.0, 0.0, 0.0;
    ( N, SABATINA, OFICIAL, F, Estrato 3, Si, No ) 0.16666666666666666, 0.16666666666666666, 0.16666666666666666, 0.16666666666666666, 0.16666666666666666, 0.16666666666666666;
    ( N, SABATINA, OFICIAL, F, Estrato 3, Si, Si ) 0.16666666666666666, 0.16666666666666666, 0.16666666666666666, 0.16666666666666666, 0.16666666666666666, 0.16666666666666666;
    ( N, SABATINA, OFICIAL, F, Estrato 4, No, No ) 0.16666666666666666, 0.16666666666666666, 0.16666666666666666, 0.16666666666666666, 0.16666666666666666, 0.16666666666666666;
    ( N, SABATINA, OFICIAL, F, Estrato 4, No, Si ) 0.16666666666666666, 0.16666666666666666, 0.16666666666666666, 0.16666666666666666, 0.16666666666666666, 0.16666666666666666;
    ( N, SABATINA, OFICIAL, F, Estrato 4, Si, No ) 0.16666666666666666, 0.16666666666666666, 0.16666666666666666, 0.16666666666666666, 0.16666666666666666, 0.16666666666666666;
    ( N, SABATINA, OFICIAL, F, Estrato 4, Si, Si ) 0.16666666666666666, 0.16666666666666666, 0.16666666666666666, 0.16666666666666666, 0.16666666666666666, 0.16666666666666666;
    ( N, SABATINA, OFICIAL, F, Estrato 5, No, No ) 0.16666666666666666, 0.16666666666666666, 0.16666666666666666, 0.16666666666666666, 0.16666666666666666, 0.16666666666666666;
    ( N, SABATINA, OFICIAL, F, Estrato 5, No, Si ) 0.16666666666666666, 0.16666666666666666, 0.16666666666666666, 0.16666666666666666, 0.16666666666666666, 0.16666666666666666;
    ( N, SABATINA, OFICIAL, F, Estrato 5, Si, No ) 0.16666666666666666, 0.16666666666666666, 0.16666666666666666, 0.16666666666666666, 0.16666666666666666, 0.16666666666666666;
    ( N, SABATINA, OFICIAL, F, Estrato 5, Si, Si ) 0.16666666666666666, 0.16666666666666666, 0.16666666666666666, 0.16666666666666666, 0.16666666666666666, 0.16666666666666666;
    ( N, SABATINA, OFICIAL, F, Estrato 6, No, No ) 0.16666666666666666, 0.16666666666666666, 0.16666666666666666, 0.16666666666666666, 0.16666666666666666, 0.16666666666666666;
    ( N, SABATINA, OFICIAL, F, Estrato 6, No, Si ) 0.16666666666666666, 0.16666666666666666, 0.16666666666666666, 0.16666666666666666, 0.16666666666666666, 0.16666666666666666;
    ( N, SABATINA, OFICIAL, F, Estrato 6, Si, No ) 0.16666666666666666, 0.16666666666666666, 0.16666666666666666, 0.16666666666666666, 0.16666666666666666, 0.16666666666666666;
    ( N, SABATINA, OFICIAL, F, Estrato 6, Si, Si ) 0.16666666666666666, 0.16666666666666666, 0.16666666666666666, 0.16666666666666666, 0.16666666666666666, 0.16666666666666666;
    ( N, SABATINA, OFICIAL, F, Sin Estrato, No, No ) 0.0, 0.3333333333333333, 0.6666666666666666, 0.0, 0.0, 0.0;
    ( N, SABATINA, OFICIAL, F, Sin Estrato, No, Si ) 0.0, 1.0, 0.0, 0.0, 0.0, 0.0;
    ( N, SABATINA, OFICIAL, F, Sin Estrato, Si, No ) 0.16666666666666666, 0.16666666666666666, 0.16666666666666666, 0.16666666666666666, 0.16666666666666666, 0.16666666666666666;
    ( N, SABATINA, OFICIAL, F, Sin Estrato, Si, Si ) 0.16666666666666666, 0.16666666666666666, 0.16666666666666666, 0.16666666666666666, 0.16666666666666666, 0.16666666666666666;
    ( N, SABATINA, OFICIAL, M, Estrato 1, No, No ) 0.0, 0.5, 0.5, 0.0, 0.0, 0.0;
    ( N, SABATINA, OFICIAL, M, Estrato 1, No, Si ) 0.0, 0.0, 1.0, 0.0, 0.0, 0.0;
    ( N, SABATINA, OFICIAL, M, Estrato 1, Si, No ) 0.16666666666666666, 0.16666666666666666, 0.16666666666666666, 0.16666666666666666, 0.16666666666666666, 0.16666666666666666;
    ( N, SABATINA, OFICIAL, M, Estrato 1, Si, Si ) 0.16666666666666666, 0.16666666666666666, 0.16666666666666666, 0.16666666666666666, 0.16666666666666666, 0.16666666666666666;
    ( N, SABATINA, OFICIAL, M, Estrato 2, No, No ) 0.0, 0.5, 0.5, 0.0, 0.0, 0.0;
    ( N, SABATINA, OFICIAL, M, Estrato 2, No, Si ) 0.16666666666666666, 0.16666666666666666, 0.16666666666666666, 0.16666666666666666, 0.16666666666666666, 0.16666666666666666;
    ( N, SABATINA, OFICIAL, M, Estrato 2, Si, No ) 0.16666666666666666, 0.16666666666666666, 0.16666666666666666, 0.16666666666666666, 0.16666666666666666, 0.16666666666666666;
    ( N, SABATINA, OFICIAL, M, Estrato 2, Si, Si ) 0.0, 0.0, 1.0, 0.0, 0.0, 0.0;
    ( N, SABATINA, OFICIAL, M, Estrato 3, No, No ) 0.0, 0.5, 0.5, 0.0, 0.0, 0.0;
    ( N, SABATINA, OFICIAL, M, Estrato 3, No, Si ) 0.0, 1.0, 0.0, 0.0, 0.0, 0.0;
    ( N, SABATINA, OFICIAL, M, Estrato 3, Si, No ) 0.16666666666666666, 0.16666666666666666, 0.16666666666666666, 0.16666666666666666, 0.16666666666666666, 0.16666666666666666;
    ( N, SABATINA, OFICIAL, M, Estrato 3, Si, Si ) 0.0, 0.0, 1.0, 0.0, 0.0, 0.0;
    ( N, SABATINA, OFICIAL, M, Estrato 4, No, No ) 0.16666666666666666, 0.16666666666666666, 0.16666666666666666, 0.16666666666666666, 0.16666666666666666, 0.16666666666666666;
    ( N, SABATINA, OFICIAL, M, Estrato 4, No, Si ) 0.16666666666666666, 0.16666666666666666, 0.16666666666666666, 0.16666666666666666, 0.16666666666666666, 0.16666666666666666;
    ( N, SABATINA, OFICIAL, M, Estrato 4, Si, No ) 0.16666666666666666, 0.16666666666666666, 0.16666666666666666, 0.16666666666666666, 0.16666666666666666, 0.16666666666666666;
    ( N, SABATINA, OFICIAL, M, Estrato 4, Si, Si ) 0.16666666666666666, 0.16666666666666666, 0.16666666666666666, 0.16666666666666666, 0.16666666666666666, 0.16666666666666666;
    ( N, SABATINA, OFICIAL, M, Estrato 5, No, No ) 0.16666666666666666, 0.16666666666666666, 0.16666666666666666, 0.16666666666666666, 0.16666666666666666, 0.16666666666666666;
    ( N, SABATINA, OFICIAL, M, Estrato 5, No, Si ) 0.16666666666666666, 0.16666666666666666, 0.16666666666666666, 0.16666666666666666, 0.16666666666666666, 0.16666666666666666;
    ( N, SABATINA, OFICIAL, M, Estrato 5, Si, No ) 0.16666666666666666, 0.16666666666666666, 0.16666666666666666, 0.16666666666666666, 0.16666666666666666, 0.16666666666666666;
    ( N, SABATINA, OFICIAL, M, Estrato 5, Si, Si ) 0.16666666666666666, 0.16666666666666666, 0.16666666666666666, 0.16666666666666666, 0.16666666666666666, 0.16666666666666666;
    ( N, SABATINA, OFICIAL, M, Estrato 6, No, No ) 0.16666666666666666, 0.16666666666666666, 0.16666666666666666, 0.16666666666666666, 0.16666666666666666, 0.16666666666666666;
    ( N, SABATINA, OFICIAL, M, Estrato 6, No, Si ) 0.0, 1.0, 0.0, 0.0, 0.0, 0.0;
    ( N, SABATINA, OFICIAL, M, Estrato 6, Si, No ) 0.16666666666666666, 0.16666666666666666, 0.16666666666666666, 0.16666666666666666, 0.16666666666666666, 0.16666666666666666;
    ( N, SABATINA, OFICIAL, M, Estrato 6, Si, Si ) 0.16666666666666666, 0.16666666666666666, 0.16666666666666666, 0.16666666666666666, 0.16666666666666666, 0.16666666666666666;
    ( N, SABATINA, OFICIAL, M, Sin Estrato, No, No ) 0.0, 0.0, 1.0, 0.0, 0.0, 0.0;
    ( N, SABATINA, OFICIAL, M, Sin Estrato, No, Si ) 0.0, 1.0, 0.0, 0.0, 0.0, 0.0;
    ( N, SABATINA, OFICIAL, M, Sin Estrato, Si, No ) 0.16666666666666666, 0.16666666666666666, 0.16666666666666666, 0.16666666666666666, 0.16666666666666666, 0.16666666666666666;
    ( N, SABATINA, OFICIAL, M, Sin Estrato, Si, Si ) 0.16666666666666666, 0.16666666666666666, 0.16666666666666666, 0.16666666666666666, 0.16666666666666666, 0.16666666666666666;
    ( N, TARDE, NO OFICIAL, F, Estrato 1, No, No ) 0.0, 0.0, 0.75, 0.25, 0.0, 0.0;
    ( N, TARDE, NO OFICIAL, F, Estrato 1, No, Si ) 0.0, 0.0, 0.7272727272727273, 0.2727272727272727, 0.0, 0.0;
    ( N, TARDE, NO OFICIAL, F, Estrato 1, Si, No ) 0.0, 0.0, 1.0, 0.0, 0.0, 0.0;
    ( N, TARDE, NO OFICIAL, F, Estrato 1, Si, Si ) 0.0, 0.05263157894736842, 0.6842105263157895, 0.2631578947368421, 0.0, 0.0;
    ( N, TARDE, NO OFICIAL, F, Estrato 2, No, No ) 0.0, 0.5, 0.5, 0.0, 0.0, 0.0;
    ( N, TARDE, NO OFICIAL, F, Estrato 2, No, Si ) 0.0, 0.0, 0.875, 0.125, 0.0, 0.0;
    ( N, TARDE, NO OFICIAL, F, Estrato 2, Si, No ) 0.0, 0.0, 1.0, 0.0, 0.0, 0.0;
    ( N, TARDE, NO OFICIAL, F, Estrato 2, Si, Si ) 0.0, 0.16666666666666666, 0.6666666666666666, 0.1111111111111111, 0.05555555555555555, 0.0;
    ( N, TARDE, NO OFICIAL, F, Estrato 3, No, No ) 0.0, 0.0, 1.0, 0.0, 0.0, 0.0;
    ( N, TARDE, NO OFICIAL, F, Estrato 3, No, Si ) 0.0, 0.0, 0.8333333333333334, 0.16666666666666666, 0.0, 0.0;
    ( N, TARDE, NO OFICIAL, F, Estrato 3, Si, No ) 0.16666666666666666, 0.16666666666666666, 0.16666666666666666, 0.16666666666666666, 0.16666666666666666, 0.16666666666666666;
    ( N, TARDE, NO OFICIAL, F, Estrato 3, Si, Si ) 0.0, 0.14285714285714285, 0.8571428571428571, 0.0, 0.0, 0.0;
    ( N, TARDE, NO OFICIAL, F, Estrato 4, No, No ) 0.16666666666666666, 0.16666666666666666, 0.16666666666666666, 0.16666666666666666, 0.16666666666666666, 0.16666666666666666;
    ( N, TARDE, NO OFICIAL, F, Estrato 4, No, Si ) 0.16666666666666666, 0.16666666666666666, 0.16666666666666666, 0.16666666666666666, 0.16666666666666666, 0.16666666666666666;
    ( N, TARDE, NO OFICIAL, F, Estrato 4, Si, No ) 0.16666666666666666, 0.16666666666666666, 0.16666666666666666, 0.16666666666666666, 0.16666666666666666, 0.16666666666666666;
    ( N, TARDE, NO OFICIAL, F, Estrato 4, Si, Si ) 0.0, 0.2, 0.6, 0.0, 0.2, 0.0;
    ( N, TARDE, NO OFICIAL, F, Estrato 5, No, No ) 0.16666666666666666, 0.16666666666666666, 0.16666666666666666, 0.16666666666666666, 0.16666666666666666, 0.16666666666666666;
    ( N, TARDE, NO OFICIAL, F, Estrato 5, No, Si ) 0.16666666666666666, 0.16666666666666666, 0.16666666666666666, 0.16666666666666666, 0.16666666666666666, 0.16666666666666666;
    ( N, TARDE, NO OFICIAL, F, Estrato 5, Si, No ) 0.16666666666666666, 0.16666666666666666, 0.16666666666666666, 0.16666666666666666, 0.16666666666666666, 0.16666666666666666;
    ( N, TARDE, NO OFICIAL, F, Estrato 5, Si, Si ) 0.0, 0.0, 1.0, 0.0, 0.0, 0.0;
    ( N, TARDE, NO OFICIAL, F, Estrato 6, No, No ) 0.16666666666666666, 0.16666666666666666, 0.16666666666666666, 0.16666666666666666, 0.16666666666666666, 0.16666666666666666;
    ( N, TARDE, NO OFICIAL, F, Estrato 6, No, Si ) 0.16666666666666666, 0.16666666666666666, 0.16666666666666666, 0.16666666666666666, 0.16666666666666666, 0.16666666666666666;
    ( N, TARDE, NO OFICIAL, F, Estrato 6, Si, No ) 0.16666666666666666, 0.16666666666666666, 0.16666666666666666, 0.16666666666666666, 0.16666666666666666, 0.16666666666666666;
    ( N, TARDE, NO OFICIAL, F, Estrato 6, Si, Si ) 0.0, 0.0, 1.0, 0.0, 0.0, 0.0;
    ( N, TARDE, NO OFICIAL, F, Sin Estrato, No, No ) 0.0, 0.0, 1.0, 0.0, 0.0, 0.0;
    ( N, TARDE, NO OFICIAL, F, Sin Estrato, No, Si ) 0.0, 0.5, 0.5, 0.0, 0.0, 0.0;
    ( N, TARDE, NO OFICIAL, F, Sin Estrato, Si, No ) 0.16666666666666666, 0.16666666666666666, 0.16666666666666666, 0.16666666666666666, 0.16666666666666666, 0.16666666666666666;
    ( N, TARDE, NO OFICIAL, F, Sin Estrato, Si, Si ) 0.16666666666666666, 0.16666666666666666, 0.16666666666666666, 0.16666666666666666, 0.16666666666666666, 0.16666666666666666;
    ( N, TARDE, NO OFICIAL, M, Estrato 1, No, No ) 0.0, 0.125, 0.75, 0.125, 0.0, 0.0;
    ( N, TARDE, NO OFICIAL, M, Estrato 1, No, Si ) 0.0, 0.0, 0.6842105263157895, 0.2631578947368421, 0.05263157894736842, 0.0;
    ( N, TARDE, NO OFICIAL, M, Estrato 1, Si, No ) 0.16666666666666666, 0.16666666666666666, 0.16666666666666666, 0.16666666666666666, 0.16666666666666666, 0.16666666666666666;
    ( N, TARDE, NO OFICIAL, M, Estrato 1, Si, Si ) 0.0, 0.05, 0.65, 0.25, 0.05, 0.0;
    ( N, TARDE, NO OFICIAL, M, Estrato 2, No, No ) 0.0, 0.14285714285714285, 0.7142857142857143, 0.14285714285714285, 0.0, 0.0;
    ( N, TARDE, NO OFICIAL, M, Estrato 2, No, Si ) 0.0, 0.11764705882352941, 0.8235294117647058, 0.058823529411764705, 0.0, 0.0;
    ( N, TARDE, NO OFICIAL, M, Estrato 2, Si, No ) 0.16666666666666666, 0.16666666666666666, 0.16666666666666666, 0.16666666666666666, 0.16666666666666666, 0.16666666666666666;
    ( N, TARDE, NO OFICIAL, M, Estrato 2, Si, Si ) 0.0, 0.0, 0.7916666666666666, 0.16666666666666666, 0.041666666666666664, 0.0;
    ( N, TARDE, NO OFICIAL, M, Estrato 3, No, No ) 0.0, 0.3333333333333333, 0.3333333333333333, 0.0, 0.3333333333333333, 0.0;
    ( N, TARDE, NO OFICIAL, M, Estrato 3, No, Si ) 0.0, 0.14285714285714285, 0.8571428571428571, 0.0, 0.0, 0.0;
    ( N, TARDE, NO OFICIAL, M, Estrato 3, Si, No ) 0.16666666666666666, 0.16666666666666666, 0.16666666666666666, 0.16666666666666666, 0.16666666666666666, 0.16666666666666666;
    ( N, TARDE, NO OFICIAL, M, Estrato 3, Si, Si ) 0.0, 0.2, 0.6666666666666666, 0.06666666666666667, 0.06666666666666667, 0.0;
    ( N, TARDE, NO OFICIAL, M, Estrato 4, No, No ) 0.16666666666666666, 0.16666666666666666, 0.16666666666666666, 0.16666666666666666, 0.16666666666666666, 0.16666666666666666;
    ( N, TARDE, NO OFICIAL, M, Estrato 4, No, Si ) 0.0, 0.3333333333333333, 0.6666666666666666, 0.0, 0.0, 0.0;
    ( N, TARDE, NO OFICIAL, M, Estrato 4, Si, No ) 0.16666666666666666, 0.16666666666666666, 0.16666666666666666, 0.16666666666666666, 0.16666666666666666, 0.16666666666666666;
    ( N, TARDE, NO OFICIAL, M, Estrato 4, Si, Si ) 0.0, 0.0, 1.0, 0.0, 0.0, 0.0;
    ( N, TARDE, NO OFICIAL, M, Estrato 5, No, No ) 0.16666666666666666, 0.16666666666666666, 0.16666666666666666, 0.16666666666666666, 0.16666666666666666, 0.16666666666666666;
    ( N, TARDE, NO OFICIAL, M, Estrato 5, No, Si ) 0.16666666666666666, 0.16666666666666666, 0.16666666666666666, 0.16666666666666666, 0.16666666666666666, 0.16666666666666666;
    ( N, TARDE, NO OFICIAL, M, Estrato 5, Si, No ) 0.16666666666666666, 0.16666666666666666, 0.16666666666666666, 0.16666666666666666, 0.16666666666666666, 0.16666666666666666;
    ( N, TARDE, NO OFICIAL, M, Estrato 5, Si, Si ) 0.16666666666666666, 0.16666666666666666, 0.16666666666666666, 0.16666666666666666, 0.16666666666666666, 0.16666666666666666;
    ( N, TARDE, NO OFICIAL, M, Estrato 6, No, No ) 0.16666666666666666, 0.16666666666666666, 0.16666666666666666, 0.16666666666666666, 0.16666666666666666, 0.16666666666666666;
    ( N, TARDE, NO OFICIAL, M, Estrato 6, No, Si ) 0.16666666666666666, 0.16666666666666666, 0.16666666666666666, 0.16666666666666666, 0.16666666666666666, 0.16666666666666666;
    ( N, TARDE, NO OFICIAL, M, Estrato 6, Si, No ) 0.16666666666666666, 0.16666666666666666, 0.16666666666666666, 0.16666666666666666, 0.16666666666666666, 0.16666666666666666;
    ( N, TARDE, NO OFICIAL, M, Estrato 6, Si, Si ) 0.16666666666666666, 0.16666666666666666, 0.16666666666666666, 0.16666666666666666, 0.16666666666666666, 0.16666666666666666;
    ( N, TARDE, NO OFICIAL, M, Sin Estrato, No, No ) 0.16666666666666666, 0.16666666666666666, 0.16666666666666666, 0.16666666666666666, 0.16666666666666666, 0.16666666666666666;
    ( N, TARDE, NO OFICIAL, M, Sin Estrato, No, Si ) 0.0, 0.0, 1.0, 0.0, 0.0, 0.0;
    ( N, TARDE, NO OFICIAL, M, Sin Estrato, Si, No ) 0.16666666666666666, 0.16666666666666666, 0.16666666666666666, 0.16666666666666666, 0.16666666666666666, 0.16666666666666666;
    ( N, TARDE, NO OFICIAL, M, Sin Estrato, Si, Si ) 0.0, 0.0, 1.0, 0.0, 0.0, 0.0;
    ( N, TARDE, OFICIAL, F, Estrato 1, No, No ) 0.0, 0.18292682926829268, 0.7621951219512195, 0.054878048780487805, 0.0, 0.0;
    ( N, TARDE, OFICIAL, F, Estrato 1, No, Si ) 0.0, 0.1796116504854369, 0.7233009708737864, 0.09223300970873786, 0.0048543689320388345, 0.0;
    ( N, TARDE, OFICIAL, F, Estrato 1, Si, No ) 0.0, 0.16666666666666666, 0.8333333333333334, 0.0, 0.0, 0.0;
    ( N, TARDE, OFICIAL, F, Estrato 1, Si, Si ) 0.0, 0.07563025210084033, 0.7983193277310925, 0.11764705882352941, 0.008403361344537815, 0.0;
    ( N, TARDE, OFICIAL, F, Estrato 2, No, No ) 0.0, 0.2, 0.7538461538461538, 0.046153846153846156, 0.0, 0.0;
    ( N, TARDE, OFICIAL, F, Estrato 2, No, Si ) 0.0, 0.13812154696132597, 0.7900552486187845, 0.0718232044198895, 0.0, 0.0;
    ( N, TARDE, OFICIAL, F, Estrato 2, Si, No ) 0.0, 0.2, 0.6, 0.1, 0.1, 0.0;
    ( N, TARDE, OFICIAL, F, Estrato 2, Si, Si ) 0.0, 0.11801242236024845, 0.6832298136645962, 0.18633540372670807, 0.012422360248447204, 0.0;
    ( N, TARDE, OFICIAL, F, Estrato 3, No, No ) 0.0, 0.28205128205128205, 0.717948717948718, 0.0, 0.0, 0.0;
    ( N, TARDE, OFICIAL, F, Estrato 3, No, Si ) 0.0, 0.16216216216216217, 0.7702702702702703, 0.06756756756756757, 0.0, 0.0;
    ( N, TARDE, OFICIAL, F, Estrato 3, Si, No ) 0.0, 0.5, 0.5, 0.0, 0.0, 0.0;
    ( N, TARDE, OFICIAL, F, Estrato 3, Si, Si ) 0.0, 0.09090909090909091, 0.7159090909090909, 0.1590909090909091, 0.03409090909090909, 0.0;
    ( N, TARDE, OFICIAL, F, Estrato 4, No, No ) 0.0, 0.3125, 0.6875, 0.0, 0.0, 0.0;
    ( N, TARDE, OFICIAL, F, Estrato 4, No, Si ) 0.0, 0.6, 0.3, 0.1, 0.0, 0.0;
    ( N, TARDE, OFICIAL, F, Estrato 4, Si, No ) 0.0, 0.0, 1.0, 0.0, 0.0, 0.0;
    ( N, TARDE, OFICIAL, F, Estrato 4, Si, Si ) 0.0, 0.2857142857142857, 0.6428571428571429, 0.07142857142857142, 0.0, 0.0;
    ( N, TARDE, OFICIAL, F, Estrato 5, No, No ) 0.0, 0.375, 0.625, 0.0, 0.0, 0.0;
    ( N, TARDE, OFICIAL, F, Estrato 5, No, Si ) 0.0, 0.5714285714285714, 0.42857142857142855, 0.0, 0.0, 0.0;
    ( N, TARDE, OFICIAL, F, Estrato 5, Si, No ) 0.0, 1.0, 0.0, 0.0, 0.0, 0.0;
    ( N, TARDE, OFICIAL, F, Estrato 5, Si, Si ) 0.0, 0.5, 0.25, 0.25, 0.0, 0.0;
    ( N, TARDE, OFICIAL, F, Estrato 6, No, No ) 0.0, 0.375, 0.625, 0.0, 0.0, 0.0;
    ( N, TARDE, OFICIAL, F, Estrato 6, No, Si ) 0.0, 0.5, 0.5, 0.0, 0.0, 0.0;
    ( N, TARDE, OFICIAL, F, Estrato 6, Si, No ) 0.16666666666666666, 0.16666666666666666, 0.16666666666666666, 0.16666666666666666, 0.16666666666666666, 0.16666666666666666;
    ( N, TARDE, OFICIAL, F, Estrato 6, Si, Si ) 0.0, 0.0, 1.0, 0.0, 0.0, 0.0;
    ( N, TARDE, OFICIAL, F, Sin Estrato, No, No ) 0.0, 0.3877551020408163, 0.6122448979591837, 0.0, 0.0, 0.0;
    ( N, TARDE, OFICIAL, F, Sin Estrato, No, Si ) 0.0, 0.45, 0.5, 0.05, 0.0, 0.0;
    ( N, TARDE, OFICIAL, F, Sin Estrato, Si, No ) 0.16666666666666666, 0.16666666666666666, 0.16666666666666666, 0.16666666666666666, 0.16666666666666666, 0.16666666666666666;
    ( N, TARDE, OFICIAL, F, Sin Estrato, Si, Si ) 0.0, 0.3333333333333333, 0.6666666666666666, 0.0, 0.0, 0.0;
    ( N, TARDE, OFICIAL, M, Estrato 1, No, No ) 0.0, 0.14754098360655737, 0.7540983606557377, 0.09836065573770492, 0.0, 0.0;
    ( N, TARDE, OFICIAL, M, Estrato 1, No, Si ) 0.0, 0.11538461538461539, 0.7846153846153846, 0.1, 0.0, 0.0;
    ( N, TARDE, OFICIAL, M, Estrato 1, Si, No ) 0.0, 0.2, 0.6, 0.2, 0.0, 0.0;
    ( N, TARDE, OFICIAL, M, Estrato 1, Si, Si ) 0.0, 0.12941176470588237, 0.7411764705882353, 0.08235294117647059, 0.047058823529411764, 0.0;
    ( N, TARDE, OFICIAL, M, Estrato 2, No, No ) 0.0, 0.21008403361344538, 0.7478991596638656, 0.03361344537815126, 0.008403361344537815, 0.0;
    ( N, TARDE, OFICIAL, M, Estrato 2, No, Si ) 0.0, 0.0979020979020979, 0.7622377622377622, 0.13286713286713286, 0.006993006993006993, 0.0;
    ( N, TARDE, OFICIAL, M, Estrato 2, Si, No ) 0.0, 0.2631578947368421, 0.7368421052631579, 0.0, 0.0, 0.0;
    ( N, TARDE, OFICIAL, M, Estrato 2, Si, Si ) 0.0, 0.1095890410958904, 0.678082191780822, 0.1917808219178082, 0.0136986301369863, 0.00684931506849315;
    ( N, TARDE, OFICIAL, M, Estrato 3, No, No ) 0.0, 0.5142857142857142, 0.45714285714285713, 0.02857142857142857, 0.0, 0.0;
    ( N, TARDE, OFICIAL, M, Estrato 3, No, Si ) 0.0, 0.1568627450980392, 0.7843137254901961, 0.058823529411764705, 0.0, 0.0;
    ( N, TARDE, OFICIAL, M, Estrato 3, Si, No ) 0.0, 0.4, 0.6, 0.0, 0.0, 0.0;
    ( N, TARDE, OFICIAL, M, Estrato 3, Si, Si ) 0.0, 0.08860759493670886, 0.7215189873417721, 0.16455696202531644, 0.02531645569620253, 0.0;
    ( N, TARDE, OFICIAL, M, Estrato 4, No, No ) 0.0, 0.42857142857142855, 0.5714285714285714, 0.0, 0.0, 0.0;
    ( N, TARDE, OFICIAL, M, Estrato 4, No, Si ) 0.0, 0.4, 0.6, 0.0, 0.0, 0.0;
    ( N, TARDE, OFICIAL, M, Estrato 4, Si, No ) 0.0, 1.0, 0.0, 0.0, 0.0, 0.0;
    ( N, TARDE, OFICIAL, M, Estrato 4, Si, Si ) 0.0, 0.15789473684210525, 0.6842105263157895, 0.15789473684210525, 0.0, 0.0;
    ( N, TARDE, OFICIAL, M, Estrato 5, No, No ) 0.0, 1.0, 0.0, 0.0, 0.0, 0.0;
    ( N, TARDE, OFICIAL, M, Estrato 5, No, Si ) 0.0, 0.25, 0.75, 0.0, 0.0, 0.0;
    ( N, TARDE, OFICIAL, M, Estrato 5, Si, No ) 0.0, 0.0, 1.0, 0.0, 0.0, 0.0;
    ( N, TARDE, OFICIAL, M, Estrato 5, Si, Si ) 0.0, 1.0, 0.0, 0.0, 0.0, 0.0;
    ( N, TARDE, OFICIAL, M, Estrato 6, No, No ) 0.0, 0.5, 0.5, 0.0, 0.0, 0.0;
    ( N, TARDE, OFICIAL, M, Estrato 6, No, Si ) 0.0, 0.75, 0.25, 0.0, 0.0, 0.0;
    ( N, TARDE, OFICIAL, M, Estrato 6, Si, No ) 0.0, 0.0, 1.0, 0.0, 0.0, 0.0;
    ( N, TARDE, OFICIAL, M, Estrato 6, Si, Si ) 0.0, 1.0, 0.0, 0.0, 0.0, 0.0;
    ( N, TARDE, OFICIAL, M, Sin Estrato, No, No ) 0.0, 0.4117647058823529, 0.5882352941176471, 0.0, 0.0, 0.0;
    ( N, TARDE, OFICIAL, M, Sin Estrato, No, Si ) 0.0, 0.125, 0.875, 0.0, 0.0, 0.0;
    ( N, TARDE, OFICIAL, M, Sin Estrato, Si, No ) 0.0, 0.0, 1.0, 0.0, 0.0, 0.0;
    ( N, TARDE, OFICIAL, M, Sin Estrato, Si, Si ) 0.0, 0.0, 0.6666666666666666, 0.3333333333333333, 0.0, 0.0;
    ( N, UNICA, NO OFICIAL, F, Estrato 1, No, No ) 0.16666666666666666, 0.16666666666666666, 0.16666666666666666, 0.16666666666666666, 0.16666666666666666, 0.16666666666666666;
    ( N, UNICA, NO OFICIAL, F, Estrato 1, No, Si ) 0.16666666666666666, 0.16666666666666666, 0.16666666666666666, 0.16666666666666666, 0.16666666666666666, 0.16666666666666666;
    ( N, UNICA, NO OFICIAL, F, Estrato 1, Si, No ) 0.16666666666666666, 0.16666666666666666, 0.16666666666666666, 0.16666666666666666, 0.16666666666666666, 0.16666666666666666;
    ( N, UNICA, NO OFICIAL, F, Estrato 1, Si, Si ) 0.16666666666666666, 0.16666666666666666, 0.16666666666666666, 0.16666666666666666, 0.16666666666666666, 0.16666666666666666;
    ( N, UNICA, NO OFICIAL, F, Estrato 2, No, No ) 0.16666666666666666, 0.16666666666666666, 0.16666666666666666, 0.16666666666666666, 0.16666666666666666, 0.16666666666666666;
    ( N, UNICA, NO OFICIAL, F, Estrato 2, No, Si ) 0.16666666666666666, 0.16666666666666666, 0.16666666666666666, 0.16666666666666666, 0.16666666666666666, 0.16666666666666666;
    ( N, UNICA, NO OFICIAL, F, Estrato 2, Si, No ) 0.16666666666666666, 0.16666666666666666, 0.16666666666666666, 0.16666666666666666, 0.16666666666666666, 0.16666666666666666;
    ( N, UNICA, NO OFICIAL, F, Estrato 2, Si, Si ) 0.16666666666666666, 0.16666666666666666, 0.16666666666666666, 0.16666666666666666, 0.16666666666666666, 0.16666666666666666;
    ( N, UNICA, NO OFICIAL, F, Estrato 3, No, No ) 0.16666666666666666, 0.16666666666666666, 0.16666666666666666, 0.16666666666666666, 0.16666666666666666, 0.16666666666666666;
    ( N, UNICA, NO OFICIAL, F, Estrato 3, No, Si ) 0.16666666666666666, 0.16666666666666666, 0.16666666666666666, 0.16666666666666666, 0.16666666666666666, 0.16666666666666666;
    ( N, UNICA, NO OFICIAL, F, Estrato 3, Si, No ) 0.16666666666666666, 0.16666666666666666, 0.16666666666666666, 0.16666666666666666, 0.16666666666666666, 0.16666666666666666;
    ( N, UNICA, NO OFICIAL, F, Estrato 3, Si, Si ) 0.16666666666666666, 0.16666666666666666, 0.16666666666666666, 0.16666666666666666, 0.16666666666666666, 0.16666666666666666;
    ( N, UNICA, NO OFICIAL, F, Estrato 4, No, No ) 0.16666666666666666, 0.16666666666666666, 0.16666666666666666, 0.16666666666666666, 0.16666666666666666, 0.16666666666666666;
    ( N, UNICA, NO OFICIAL, F, Estrato 4, No, Si ) 0.16666666666666666, 0.16666666666666666, 0.16666666666666666, 0.16666666666666666, 0.16666666666666666, 0.16666666666666666;
    ( N, UNICA, NO OFICIAL, F, Estrato 4, Si, No ) 0.16666666666666666, 0.16666666666666666, 0.16666666666666666, 0.16666666666666666, 0.16666666666666666, 0.16666666666666666;
    ( N, UNICA, NO OFICIAL, F, Estrato 4, Si, Si ) 0.16666666666666666, 0.16666666666666666, 0.16666666666666666, 0.16666666666666666, 0.16666666666666666, 0.16666666666666666;
    ( N, UNICA, NO OFICIAL, F, Estrato 5, No, No ) 0.16666666666666666, 0.16666666666666666, 0.16666666666666666, 0.16666666666666666, 0.16666666666666666, 0.16666666666666666;
    ( N, UNICA, NO OFICIAL, F, Estrato 5, No, Si ) 0.16666666666666666, 0.16666666666666666, 0.16666666666666666, 0.16666666666666666, 0.16666666666666666, 0.16666666666666666;
    ( N, UNICA, NO OFICIAL, F, Estrato 5, Si, No ) 0.16666666666666666, 0.16666666666666666, 0.16666666666666666, 0.16666666666666666, 0.16666666666666666, 0.16666666666666666;
    ( N, UNICA, NO OFICIAL, F, Estrato 5, Si, Si ) 0.16666666666666666, 0.16666666666666666, 0.16666666666666666, 0.16666666666666666, 0.16666666666666666, 0.16666666666666666;
    ( N, UNICA, NO OFICIAL, F, Estrato 6, No, No ) 0.16666666666666666, 0.16666666666666666, 0.16666666666666666, 0.16666666666666666, 0.16666666666666666, 0.16666666666666666;
    ( N, UNICA, NO OFICIAL, F, Estrato 6, No, Si ) 0.16666666666666666, 0.16666666666666666, 0.16666666666666666, 0.16666666666666666, 0.16666666666666666, 0.16666666666666666;
    ( N, UNICA, NO OFICIAL, F, Estrato 6, Si, No ) 0.16666666666666666, 0.16666666666666666, 0.16666666666666666, 0.16666666666666666, 0.16666666666666666, 0.16666666666666666;
    ( N, UNICA, NO OFICIAL, F, Estrato 6, Si, Si ) 0.16666666666666666, 0.16666666666666666, 0.16666666666666666, 0.16666666666666666, 0.16666666666666666, 0.16666666666666666;
    ( N, UNICA, NO OFICIAL, F, Sin Estrato, No, No ) 0.16666666666666666, 0.16666666666666666, 0.16666666666666666, 0.16666666666666666, 0.16666666666666666, 0.16666666666666666;
    ( N, UNICA, NO OFICIAL, F, Sin Estrato, No, Si ) 0.16666666666666666, 0.16666666666666666, 0.16666666666666666, 0.16666666666666666, 0.16666666666666666, 0.16666666666666666;
    ( N, UNICA, NO OFICIAL, F, Sin Estrato, Si, No ) 0.16666666666666666, 0.16666666666666666, 0.16666666666666666, 0.16666666666666666, 0.16666666666666666, 0.16666666666666666;
    ( N, UNICA, NO OFICIAL, F, Sin Estrato, Si, Si ) 0.16666666666666666, 0.16666666666666666, 0.16666666666666666, 0.16666666666666666, 0.16666666666666666, 0.16666666666666666;
    ( N, UNICA, NO OFICIAL, M, Estrato 1, No, No ) 0.16666666666666666, 0.16666666666666666, 0.16666666666666666, 0.16666666666666666, 0.16666666666666666, 0.16666666666666666;
    ( N, UNICA, NO OFICIAL, M, Estrato 1, No, Si ) 0.16666666666666666, 0.16666666666666666, 0.16666666666666666, 0.16666666666666666, 0.16666666666666666, 0.16666666666666666;
    ( N, UNICA, NO OFICIAL, M, Estrato 1, Si, No ) 0.16666666666666666, 0.16666666666666666, 0.16666666666666666, 0.16666666666666666, 0.16666666666666666, 0.16666666666666666;
    ( N, UNICA, NO OFICIAL, M, Estrato 1, Si, Si ) 0.16666666666666666, 0.16666666666666666, 0.16666666666666666, 0.16666666666666666, 0.16666666666666666, 0.16666666666666666;
    ( N, UNICA, NO OFICIAL, M, Estrato 2, No, No ) 0.16666666666666666, 0.16666666666666666, 0.16666666666666666, 0.16666666666666666, 0.16666666666666666, 0.16666666666666666;
    ( N, UNICA, NO OFICIAL, M, Estrato 2, No, Si ) 0.16666666666666666, 0.16666666666666666, 0.16666666666666666, 0.16666666666666666, 0.16666666666666666, 0.16666666666666666;
    ( N, UNICA, NO OFICIAL, M, Estrato 2, Si, No ) 0.16666666666666666, 0.16666666666666666, 0.16666666666666666, 0.16666666666666666, 0.16666666666666666, 0.16666666666666666;
    ( N, UNICA, NO OFICIAL, M, Estrato 2, Si, Si ) 0.16666666666666666, 0.16666666666666666, 0.16666666666666666, 0.16666666666666666, 0.16666666666666666, 0.16666666666666666;
    ( N, UNICA, NO OFICIAL, M, Estrato 3, No, No ) 0.16666666666666666, 0.16666666666666666, 0.16666666666666666, 0.16666666666666666, 0.16666666666666666, 0.16666666666666666;
    ( N, UNICA, NO OFICIAL, M, Estrato 3, No, Si ) 0.16666666666666666, 0.16666666666666666, 0.16666666666666666, 0.16666666666666666, 0.16666666666666666, 0.16666666666666666;
    ( N, UNICA, NO OFICIAL, M, Estrato 3, Si, No ) 0.16666666666666666, 0.16666666666666666, 0.16666666666666666, 0.16666666666666666, 0.16666666666666666, 0.16666666666666666;
    ( N, UNICA, NO OFICIAL, M, Estrato 3, Si, Si ) 0.16666666666666666, 0.16666666666666666, 0.16666666666666666, 0.16666666666666666, 0.16666666666666666, 0.16666666666666666;
    ( N, UNICA, NO OFICIAL, M, Estrato 4, No, No ) 0.16666666666666666, 0.16666666666666666, 0.16666666666666666, 0.16666666666666666, 0.16666666666666666, 0.16666666666666666;
    ( N, UNICA, NO OFICIAL, M, Estrato 4, No, Si ) 0.16666666666666666, 0.16666666666666666, 0.16666666666666666, 0.16666666666666666, 0.16666666666666666, 0.16666666666666666;
    ( N, UNICA, NO OFICIAL, M, Estrato 4, Si, No ) 0.16666666666666666, 0.16666666666666666, 0.16666666666666666, 0.16666666666666666, 0.16666666666666666, 0.16666666666666666;
    ( N, UNICA, NO OFICIAL, M, Estrato 4, Si, Si ) 0.16666666666666666, 0.16666666666666666, 0.16666666666666666, 0.16666666666666666, 0.16666666666666666, 0.16666666666666666;
    ( N, UNICA, NO OFICIAL, M, Estrato 5, No, No ) 0.16666666666666666, 0.16666666666666666, 0.16666666666666666, 0.16666666666666666, 0.16666666666666666, 0.16666666666666666;
    ( N, UNICA, NO OFICIAL, M, Estrato 5, No, Si ) 0.16666666666666666, 0.16666666666666666, 0.16666666666666666, 0.16666666666666666, 0.16666666666666666, 0.16666666666666666;
    ( N, UNICA, NO OFICIAL, M, Estrato 5, Si, No ) 0.16666666666666666, 0.16666666666666666, 0.16666666666666666, 0.16666666666666666, 0.16666666666666666, 0.16666666666666666;
    ( N, UNICA, NO OFICIAL, M, Estrato 5, Si, Si ) 0.16666666666666666, 0.16666666666666666, 0.16666666666666666, 0.16666666666666666, 0.16666666666666666, 0.16666666666666666;
    ( N, UNICA, NO OFICIAL, M, Estrato 6, No, No ) 0.16666666666666666, 0.16666666666666666, 0.16666666666666666, 0.16666666666666666, 0.16666666666666666, 0.16666666666666666;
    ( N, UNICA, NO OFICIAL, M, Estrato 6, No, Si ) 0.16666666666666666, 0.16666666666666666, 0.16666666666666666, 0.16666666666666666, 0.16666666666666666, 0.16666666666666666;
    ( N, UNICA, NO OFICIAL, M, Estrato 6, Si, No ) 0.16666666666666666, 0.16666666666666666, 0.16666666666666666, 0.16666666666666666, 0.16666666666666666, 0.16666666666666666;
    ( N, UNICA, NO OFICIAL, M, Estrato 6, Si, Si ) 0.16666666666666666, 0.16666666666666666, 0.16666666666666666, 0.16666666666666666, 0.16666666666666666, 0.16666666666666666;
    ( N, UNICA, NO OFICIAL, M, Sin Estrato, No, No ) 0.16666666666666666, 0.16666666666666666, 0.16666666666666666, 0.16666666666666666, 0.16666666666666666, 0.16666666666666666;
    ( N, UNICA, NO OFICIAL, M, Sin Estrato, No, Si ) 0.16666666666666666, 0.16666666666666666, 0.16666666666666666, 0.16666666666666666, 0.16666666666666666, 0.16666666666666666;
    ( N, UNICA, NO OFICIAL, M, Sin Estrato, Si, No ) 0.16666666666666666, 0.16666666666666666, 0.16666666666666666, 0.16666666666666666, 0.16666666666666666, 0.16666666666666666;
    ( N, UNICA, NO OFICIAL, M, Sin Estrato, Si, Si ) 0.16666666666666666, 0.16666666666666666, 0.16666666666666666, 0.16666666666666666, 0.16666666666666666, 0.16666666666666666;
    ( N, UNICA, OFICIAL, F, Estrato 1, No, No ) 0.0, 0.2727272727272727, 0.7272727272727273, 0.0, 0.0, 0.0;
    ( N, UNICA, OFICIAL, F, Estrato 1, No, Si ) 0.0, 0.18181818181818182, 0.6818181818181818, 0.13636363636363635, 0.0, 0.0;
    ( N, UNICA, OFICIAL, F, Estrato 1, Si, No ) 0.0, 0.0, 0.5, 0.5, 0.0, 0.0;
    ( N, UNICA, OFICIAL, F, Estrato 1, Si, Si ) 0.0, 0.0, 0.8, 0.2, 0.0, 0.0;
    ( N, UNICA, OFICIAL, F, Estrato 2, No, No ) 0.0, 0.15384615384615385, 0.7692307692307693, 0.0, 0.07692307692307693, 0.0;
    ( N, UNICA, OFICIAL, F, Estrato 2, No, Si ) 0.0, 0.0625, 0.90625, 0.03125, 0.0, 0.0;
    ( N, UNICA, OFICIAL, F, Estrato 2, Si, No ) 0.0, 0.0, 0.75, 0.25, 0.0, 0.0;
    ( N, UNICA, OFICIAL, F, Estrato 2, Si, Si ) 0.0, 0.13043478260869565, 0.782608695652174, 0.08695652173913043, 0.0, 0.0;
    ( N, UNICA, OFICIAL, F, Estrato 3, No, No ) 0.0, 0.2, 0.8, 0.0, 0.0, 0.0;
    ( N, UNICA, OFICIAL, F, Estrato 3, No, Si ) 0.0, 0.3, 0.5, 0.2, 0.0, 0.0;
    ( N, UNICA, OFICIAL, F, Estrato 3, Si, No ) 0.0, 0.0, 1.0, 0.0, 0.0, 0.0;
    ( N, UNICA, OFICIAL, F, Estrato 3, Si, Si ) 0.0, 0.06666666666666667, 0.8, 0.13333333333333333, 0.0, 0.0;
    ( N, UNICA, OFICIAL, F, Estrato 4, No, No ) 0.0, 1.0, 0.0, 0.0, 0.0, 0.0;
    ( N, UNICA, OFICIAL, F, Estrato 4, No, Si ) 0.0, 0.0, 1.0, 0.0, 0.0, 0.0;
    ( N, UNICA, OFICIAL, F, Estrato 4, Si, No ) 0.16666666666666666, 0.16666666666666666, 0.16666666666666666, 0.16666666666666666, 0.16666666666666666, 0.16666666666666666;
    ( N, UNICA, OFICIAL, F, Estrato 4, Si, Si ) 0.0, 0.0, 0.6666666666666666, 0.3333333333333333, 0.0, 0.0;
    ( N, UNICA, OFICIAL, F, Estrato 5, No, No ) 0.0, 1.0, 0.0, 0.0, 0.0, 0.0;
    ( N, UNICA, OFICIAL, F, Estrato 5, No, Si ) 0.16666666666666666, 0.16666666666666666, 0.16666666666666666, 0.16666666666666666, 0.16666666666666666, 0.16666666666666666;
    ( N, UNICA, OFICIAL, F, Estrato 5, Si, No ) 0.16666666666666666, 0.16666666666666666, 0.16666666666666666, 0.16666666666666666, 0.16666666666666666, 0.16666666666666666;
    ( N, UNICA, OFICIAL, F, Estrato 5, Si, Si ) 0.0, 1.0, 0.0, 0.0, 0.0, 0.0;
    ( N, UNICA, OFICIAL, F, Estrato 6, No, No ) 0.0, 1.0, 0.0, 0.0, 0.0, 0.0;
    ( N, UNICA, OFICIAL, F, Estrato 6, No, Si ) 0.16666666666666666, 0.16666666666666666, 0.16666666666666666, 0.16666666666666666, 0.16666666666666666, 0.16666666666666666;
    ( N, UNICA, OFICIAL, F, Estrato 6, Si, No ) 0.16666666666666666, 0.16666666666666666, 0.16666666666666666, 0.16666666666666666, 0.16666666666666666, 0.16666666666666666;
    ( N, UNICA, OFICIAL, F, Estrato 6, Si, Si ) 0.0, 0.0, 0.0, 1.0, 0.0, 0.0;
    ( N, UNICA, OFICIAL, F, Sin Estrato, No, No ) 0.0, 0.4, 0.6, 0.0, 0.0, 0.0;
    ( N, UNICA, OFICIAL, F, Sin Estrato, No, Si ) 0.0, 0.2, 0.8, 0.0, 0.0, 0.0;
    ( N, UNICA, OFICIAL, F, Sin Estrato, Si, No ) 0.16666666666666666, 0.16666666666666666, 0.16666666666666666, 0.16666666666666666, 0.16666666666666666, 0.16666666666666666;
    ( N, UNICA, OFICIAL, F, Sin Estrato, Si, Si ) 0.16666666666666666, 0.16666666666666666, 0.16666666666666666, 0.16666666666666666, 0.16666666666666666, 0.16666666666666666;
    ( N, UNICA, OFICIAL, M, Estrato 1, No, No ) 0.0, 0.18181818181818182, 0.8181818181818182, 0.0, 0.0, 0.0;
    ( N, UNICA, OFICIAL, M, Estrato 1, No, Si ) 0.0, 0.14285714285714285, 0.8571428571428571, 0.0, 0.0, 0.0;
    ( N, UNICA, OFICIAL, M, Estrato 1, Si, No ) 0.0, 0.0, 0.6666666666666666, 0.3333333333333333, 0.0, 0.0;
    ( N, UNICA, OFICIAL, M, Estrato 1, Si, Si ) 0.0, 0.0, 0.7142857142857143, 0.2857142857142857, 0.0, 0.0;
    ( N, UNICA, OFICIAL, M, Estrato 2, No, No ) 0.0, 0.2, 0.7, 0.1, 0.0, 0.0;
    ( N, UNICA, OFICIAL, M, Estrato 2, No, Si ) 0.0, 0.2857142857142857, 0.5714285714285714, 0.14285714285714285, 0.0, 0.0;
    ( N, UNICA, OFICIAL, M, Estrato 2, Si, No ) 0.0, 0.0, 1.0, 0.0, 0.0, 0.0;
    ( N, UNICA, OFICIAL, M, Estrato 2, Si, Si ) 0.0, 0.0, 0.8148148148148148, 0.18518518518518517, 0.0, 0.0;
    ( N, UNICA, OFICIAL, M, Estrato 3, No, No ) 0.0, 0.3333333333333333, 0.6666666666666666, 0.0, 0.0, 0.0;
    ( N, UNICA, OFICIAL, M, Estrato 3, No, Si ) 0.0, 0.3, 0.7, 0.0, 0.0, 0.0;
    ( N, UNICA, OFICIAL, M, Estrato 3, Si, No ) 0.0, 1.0, 0.0, 0.0, 0.0, 0.0;
    ( N, UNICA, OFICIAL, M, Estrato 3, Si, Si ) 0.0, 0.25, 0.6666666666666666, 0.08333333333333333, 0.0, 0.0;
    ( N, UNICA, OFICIAL, M, Estrato 4, No, No ) 0.0, 0.3333333333333333, 0.6666666666666666, 0.0, 0.0, 0.0;
    ( N, UNICA, OFICIAL, M, Estrato 4, No, Si ) 0.0, 0.5, 0.5, 0.0, 0.0, 0.0;
    ( N, UNICA, OFICIAL, M, Estrato 4, Si, No ) 0.0, 0.0, 1.0, 0.0, 0.0, 0.0;
    ( N, UNICA, OFICIAL, M, Estrato 4, Si, Si ) 0.0, 0.0, 0.0, 0.0, 1.0, 0.0;
    ( N, UNICA, OFICIAL, M, Estrato 5, No, No ) 0.16666666666666666, 0.16666666666666666, 0.16666666666666666, 0.16666666666666666, 0.16666666666666666, 0.16666666666666666;
    ( N, UNICA, OFICIAL, M, Estrato 5, No, Si ) 0.0, 1.0, 0.0, 0.0, 0.0, 0.0;
    ( N, UNICA, OFICIAL, M, Estrato 5, Si, No ) 0.16666666666666666, 0.16666666666666666, 0.16666666666666666, 0.16666666666666666, 0.16666666666666666, 0.16666666666666666;
    ( N, UNICA, OFICIAL, M, Estrato 5, Si, Si ) 0.0, 0.0, 1.0, 0.0, 0.0, 0.0;
    ( N, UNICA, OFICIAL, M, Estrato 6, No, No ) 0.0, 0.0, 1.0, 0.0, 0.0, 0.0;
    ( N, UNICA, OFICIAL, M, Estrato 6, No, Si ) 0.0, 0.5, 0.5, 0.0, 0.0, 0.0;
    ( N, UNICA, OFICIAL, M, Estrato 6, Si, No ) 0.16666666666666666, 0.16666666666666666, 0.16666666666666666, 0.16666666666666666, 0.16666666666666666, 0.16666666666666666;
    ( N, UNICA, OFICIAL, M, Estrato 6, Si, Si ) 0.0, 1.0, 0.0, 0.0, 0.0, 0.0;
    ( N, UNICA, OFICIAL, M, Sin Estrato, No, No ) 0.0, 0.0, 1.0, 0.0, 0.0, 0.0;
    ( N, UNICA, OFICIAL, M, Sin Estrato, No, Si ) 0.0, 0.0, 1.0, 0.0, 0.0, 0.0;
    ( N, UNICA, OFICIAL, M, Sin Estrato, Si, No ) 0.16666666666666666, 0.16666666666666666, 0.16666666666666666, 0.16666666666666666, 0.16666666666666666, 0.16666666666666666;
    ( N, UNICA, OFICIAL, M, Sin Estrato, Si, Si ) 0.0, 1.0, 0.0, 0.0, 0.0, 0.0;
    ( S, COMPLETA, NO OFICIAL, F, Estrato 1, No, No ) 0.16666666666666666, 0.16666666666666666, 0.16666666666666666, 0.16666666666666666, 0.16666666666666666, 0.16666666666666666;
    ( S, COMPLETA, NO OFICIAL, F, Estrato 1, No, Si ) 0.16666666666666666, 0.16666666666666666, 0.16666666666666666, 0.16666666666666666, 0.16666666666666666, 0.16666666666666666;
    ( S, COMPLETA, NO OFICIAL, F, Estrato 1, Si, No ) 0.16666666666666666, 0.16666666666666666, 0.16666666666666666, 0.16666666666666666, 0.16666666666666666, 0.16666666666666666;
    ( S, COMPLETA, NO OFICIAL, F, Estrato 1, Si, Si ) 0.0, 0.0, 0.0, 0.5, 0.5, 0.0;
    ( S, COMPLETA, NO OFICIAL, F, Estrato 2, No, No ) 0.16666666666666666, 0.16666666666666666, 0.16666666666666666, 0.16666666666666666, 0.16666666666666666, 0.16666666666666666;
    ( S, COMPLETA, NO OFICIAL, F, Estrato 2, No, Si ) 0.16666666666666666, 0.16666666666666666, 0.16666666666666666, 0.16666666666666666, 0.16666666666666666, 0.16666666666666666;
    ( S, COMPLETA, NO OFICIAL, F, Estrato 2, Si, No ) 0.16666666666666666, 0.16666666666666666, 0.16666666666666666, 0.16666666666666666, 0.16666666666666666, 0.16666666666666666;
    ( S, COMPLETA, NO OFICIAL, F, Estrato 2, Si, Si ) 0.0, 0.0, 0.5, 0.5, 0.0, 0.0;
    ( S, COMPLETA, NO OFICIAL, F, Estrato 3, No, No ) 0.16666666666666666, 0.16666666666666666, 0.16666666666666666, 0.16666666666666666, 0.16666666666666666, 0.16666666666666666;
    ( S, COMPLETA, NO OFICIAL, F, Estrato 3, No, Si ) 0.0, 0.0, 0.0, 1.0, 0.0, 0.0;
    ( S, COMPLETA, NO OFICIAL, F, Estrato 3, Si, No ) 0.16666666666666666, 0.16666666666666666, 0.16666666666666666, 0.16666666666666666, 0.16666666666666666, 0.16666666666666666;
    ( S, COMPLETA, NO OFICIAL, F, Estrato 3, Si, Si ) 0.0, 0.0, 0.3333333333333333, 0.6666666666666666, 0.0, 0.0;
    ( S, COMPLETA, NO OFICIAL, F, Estrato 4, No, No ) 0.16666666666666666, 0.16666666666666666, 0.16666666666666666, 0.16666666666666666, 0.16666666666666666, 0.16666666666666666;
    ( S, COMPLETA, NO OFICIAL, F, Estrato 4, No, Si ) 0.0, 0.0, 1.0, 0.0, 0.0, 0.0;
    ( S, COMPLETA, NO OFICIAL, F, Estrato 4, Si, No ) 0.16666666666666666, 0.16666666666666666, 0.16666666666666666, 0.16666666666666666, 0.16666666666666666, 0.16666666666666666;
    ( S, COMPLETA, NO OFICIAL, F, Estrato 4, Si, Si ) 0.0, 0.0, 0.09090909090909091, 0.4090909090909091, 0.5, 0.0;
    ( S, COMPLETA, NO OFICIAL, F, Estrato 5, No, No ) 0.16666666666666666, 0.16666666666666666, 0.16666666666666666, 0.16666666666666666, 0.16666666666666666, 0.16666666666666666;
    ( S, COMPLETA, NO OFICIAL, F, Estrato 5, No, Si ) 0.0, 0.0, 0.0, 0.0, 1.0, 0.0;
    ( S, COMPLETA, NO OFICIAL, F, Estrato 5, Si, No ) 0.16666666666666666, 0.16666666666666666, 0.16666666666666666, 0.16666666666666666, 0.16666666666666666, 0.16666666666666666;
    ( S, COMPLETA, NO OFICIAL, F, Estrato 5, Si, Si ) 0.0, 0.0, 0.04477611940298507, 0.47761194029850745, 0.43283582089552236, 0.04477611940298507;
    ( S, COMPLETA, NO OFICIAL, F, Estrato 6, No, No ) 0.16666666666666666, 0.16666666666666666, 0.16666666666666666, 0.16666666666666666, 0.16666666666666666, 0.16666666666666666;
    ( S, COMPLETA, NO OFICIAL, F, Estrato 6, No, Si ) 0.16666666666666666, 0.16666666666666666, 0.16666666666666666, 0.16666666666666666, 0.16666666666666666, 0.16666666666666666;
    ( S, COMPLETA, NO OFICIAL, F, Estrato 6, Si, No ) 0.16666666666666666, 0.16666666666666666, 0.16666666666666666, 0.16666666666666666, 0.16666666666666666, 0.16666666666666666;
    ( S, COMPLETA, NO OFICIAL, F, Estrato 6, Si, Si ) 0.0, 0.0, 0.10101010101010101, 0.37373737373737376, 0.46464646464646464, 0.06060606060606061;
    ( S, COMPLETA, NO OFICIAL, F, Sin Estrato, No, No ) 0.16666666666666666, 0.16666666666666666, 0.16666666666666666, 0.16666666666666666, 0.16666666666666666, 0.16666666666666666;
    ( S, COMPLETA, NO OFICIAL, F, Sin Estrato, No, Si ) 0.16666666666666666, 0.16666666666666666, 0.16666666666666666, 0.16666666666666666, 0.16666666666666666, 0.16666666666666666;
    ( S, COMPLETA, NO OFICIAL, F, Sin Estrato, Si, No ) 0.16666666666666666, 0.16666666666666666, 0.16666666666666666, 0.16666666666666666, 0.16666666666666666, 0.16666666666666666;
    ( S, COMPLETA, NO OFICIAL, F, Sin Estrato, Si, Si ) 0.0, 0.0, 0.0, 1.0, 0.0, 0.0;
    ( S, COMPLETA, NO OFICIAL, M, Estrato 1, No, No ) 0.16666666666666666, 0.16666666666666666, 0.16666666666666666, 0.16666666666666666, 0.16666666666666666, 0.16666666666666666;
    ( S, COMPLETA, NO OFICIAL, M, Estrato 1, No, Si ) 0.16666666666666666, 0.16666666666666666, 0.16666666666666666, 0.16666666666666666, 0.16666666666666666, 0.16666666666666666;
    ( S, COMPLETA, NO OFICIAL, M, Estrato 1, Si, No ) 0.16666666666666666, 0.16666666666666666, 0.16666666666666666, 0.16666666666666666, 0.16666666666666666, 0.16666666666666666;
    ( S, COMPLETA, NO OFICIAL, M, Estrato 1, Si, Si ) 0.0, 0.0, 0.0, 1.0, 0.0, 0.0;
    ( S, COMPLETA, NO OFICIAL, M, Estrato 2, No, No ) 0.16666666666666666, 0.16666666666666666, 0.16666666666666666, 0.16666666666666666, 0.16666666666666666, 0.16666666666666666;
    ( S, COMPLETA, NO OFICIAL, M, Estrato 2, No, Si ) 0.16666666666666666, 0.16666666666666666, 0.16666666666666666, 0.16666666666666666, 0.16666666666666666, 0.16666666666666666;
    ( S, COMPLETA, NO OFICIAL, M, Estrato 2, Si, No ) 0.16666666666666666, 0.16666666666666666, 0.16666666666666666, 0.16666666666666666, 0.16666666666666666, 0.16666666666666666;
    ( S, COMPLETA, NO OFICIAL, M, Estrato 2, Si, Si ) 0.0, 0.0, 0.0, 0.5, 0.5, 0.0;
    ( S, COMPLETA, NO OFICIAL, M, Estrato 3, No, No ) 0.16666666666666666, 0.16666666666666666, 0.16666666666666666, 0.16666666666666666, 0.16666666666666666, 0.16666666666666666;
    ( S, COMPLETA, NO OFICIAL, M, Estrato 3, No, Si ) 0.16666666666666666, 0.16666666666666666, 0.16666666666666666, 0.16666666666666666, 0.16666666666666666, 0.16666666666666666;
    ( S, COMPLETA, NO OFICIAL, M, Estrato 3, Si, No ) 0.16666666666666666, 0.16666666666666666, 0.16666666666666666, 0.16666666666666666, 0.16666666666666666, 0.16666666666666666;
    ( S, COMPLETA, NO OFICIAL, M, Estrato 3, Si, Si ) 0.0, 0.0, 0.0, 0.4444444444444444, 0.5555555555555556, 0.0;
